#ifndef TRAINED_MODEL_H
#define TRAINED_MODEL_H

/* Created: 29.06.2023
   Last modified: 11.08.2023
   @ Jukka J jajoutzs@jyu.fi
*/

/* This file contains all the data, that pre-trained python NN has learnt.
   Initilizing values already like this gives best performance, as there
   is no need to read files, allocate memory etc. Mainly, if anything
   changes (dimension wise), it is input-data size.
*/

/* Pre trained model's data: */

/* Batch normalization values: */

/* Gamma, beta, mean and variance, for BN1 */
double batch_normalization_1_p[PARAMS] = {1.0724242,-0.051953208,1.032448,0.124230675};

/* One array for gammas, betas, means and variances of BN2 */
double batch_normalization_2[PARAMS][C1KC_AND_C2IC] = {
{0.8101721,0.8530817,1.1926224,0.6538438,0.81891626,0.7149584,0.65229255,0.9957966,1.2687114,0.5611794,0.89249545,1.290913,0.9498732,0.84890103,0.9856023,0.8843297,0.9936685,0.989067,0.7367724,0.9547917,0.76413316,0.8706933,0.6591091,0.6531227},
{0.0243462,0.10787442,0.03596655,0.0199614,-0.05821848,0.02337302,0.03510781,-0.05205499,0.12170394,0.05492865,0.00615859,-0.03217642,0.05588302,-0.01395637,-0.03323043,0.07474808,-0.06910949,-0.02847931,0.05603687,-0.00490551,0.0295366,0.07784383,0.0189483,-0.01623491},   
{9.4353123e-11,3.4781169e-02,9.5015578e-02,1.0529071e-02,1.1376473e-03,6.3989777e-05,4.5670720e-04,2.5808178e-02,1.3544421e-01,8.5147592e-04,4.4209450e-02,1.9933486e-02,2.7576959e-02,2.7583212e-05,2.5432196e-02,1.5007816e-02,5.2717421e-02,4.8725192e-02,2.1196960e-02,2.6620100e-05,6.2066270e-04,5.3486604e-02,5.0655087e-03,7.9556108e-03},
{3.4063132e-12,4.1561266e-03,1.0134401e-03,3.3557098e-04,6.8709846e-06,1.2277255e-06,6.6665207e-06,2.9967048e-03,1.0588201e-03,2.4649957e-05,3.7264810e-03,3.5374178e-04,1.3634958e-03,4.0957495e-09,1.5427499e-03,2.1148645e-03,1.3766274e-03,2.5229163e-03,2.5323383e-04,5.5464220e-09,8.6125692e-06,9.0201752e-04,1.8018970e-06,7.4395251e-07}
};
 
/* One array for gammas, betas, means and variances of BN3 */
double batch_normalization_3[PARAMS][C1B_AND_C2KC] = {
{0.74084276, 0.38510105, 0.52772206, 0.3768712, 0.46134406, 0.33972284, 0.51647997, 0.45467407},
{0.17295337, 0.13097659, 0.23321196, 0.18003455, 0.033772472, 0.06867538, 0.08499422, 0.123435095},
{0.2513823, 0.103074394, 0.17168932, 0.13634567, 0.19312535, 0.15059908, 0.14018063, 0.124851346}, 
{0.12698255, 0.052383296, 0.10875038, 0.056124683, 0.03266522, 0.043436468, 0.0902539, 0.08126228}
};

/* Conv1d: */
double conv1d_bias[C1KC_AND_C2IC] = {-0.008302081, 0.0012705175, 0.0971946, -0.003744577, -0.0018189356, -0.013333689, -0.0025534565, -0.07008793, 0.13715476, -0.012745095, 0.00075732416, 0.016766263, 0.0012806769, -1.2155459e-06, -0.010302369, -0.07380806, 0.049718194, 0.028933195, 0.019707235, -1.8607435e-06, -0.0034227457, 0.048711345, 0.003659762, 0.00725965};

double conv1d_kernel[KS][C1IC][C1KC_AND_C2IC] = {
{{-6.779336e-07, 0.015255374, 0.21907419, -0.0006219507, 0.0008343674, 1.3814946e-06, 7.04595e-07, 0.0010942977, 0.11460233, 2.9143568e-05, -0.0033210267, -0.16227716, 0.0009841869, 6.21733e-06, 0.0010119848, 0.0733468, 0.008859828, 0.014313977, 0.0024433143, -1.2364371e-05, 5.2035085e-07, -0.058847163, -0.0003381548, 2.1607542e-05},
},
{{4.2358274e-06, 0.06359453, 0.005673342, -0.0022400299, 0.00073653436, 1.3959843e-06, 2.0184657e-06, -0.07003435, 0.20888989, 2.4445415e-05, -0.017796777, -0.02804987, -5.3506647e-05, 1.5329013e-07, -0.0011593086, 0.0058427015, 0.13172108, 0.061492294, 0.0028713995, 8.467537e-06, 3.043563e-06, -0.0905375, -0.00033855715, 3.601487e-05},
},
{{-1.6944875e-06, 0.0056517394, -0.033817153, -0.0052520013, 0.0006829487, 2.2753027e-06, -1.6043246e-06, -0.061443686, -0.07367291, -0.054982737, -0.029045345, 0.06540859, -0.0017707555, -1.0262172e-05, -0.0028718254, 0.0056126122, -0.085175656, 0.008145865, 0.0031396216, -1.7193398e-06, 3.3386032e-06, -0.038222544, -0.000310466, 3.535711e-05},
},
{{2.696137e-07, 0.005548621, -0.18819967, -0.007803912, 0.0006146818, -2.7382082e-06, -7.6115873e-07, 0.0023924706, -0.16645285, -0.018491495, -0.033268265, -0.10475704, -0.0040572546, -8.6140035e-06, -0.0091357045, 0.0054641287, 0.0025693383, -0.0013760425, 0.0036142187, -1.9396882e-06, 6.2382437e-06, 0.0035816468, -0.00033138937, 3.754294e-05},
},
{{5.76927e-07, 0.0028950083, -0.021400927, -0.009720859, -0.0038076183, -4.574609e-06, 1.6438465e-06, 0.0041612866, -0.088365436, 0.074837394, -0.024366554, 0.24383612, -0.05478464, 2.0971008e-06, -0.06019294, 0.0054530078, -0.09077215, -0.15275432, 0.0037867564, -3.0587828e-06, 9.819449e-09, 0.1610379, -0.0003438749, 4.112108e-05},
},
};
/* Conv1d_1: */
double conv1d_1_bias[C1B_AND_C2KC] = {0.122103505,-0.00946661,-0.00010888915,-0.0042626592,0.08284662,0.0644964,-0.053810786,-0.037843335};

double conv1d_1_kernel[KS][C1KC_AND_C2IC][C1B_AND_C2KC] = {
{{-8.6401145e-05, -0.00011828501, -0.00017707907, -0.000104457526, 6.1751845e-05, 0.00029102282, 2.6845377e-05, -6.469528e-05},
{-0.041760158, -0.0007060609, 0.00027956805, 0.00019757984, -0.0008183512, 0.033137195, 0.010073336, 0.003712247},
{-0.0116283465, 0.009914468, 0.016739486, 0.03438211, -0.04853863, -0.012628354, -0.038766418, 0.0014676487},
{-0.0007434662, 0.0028824357, -0.006331977, -0.0023759215, -0.015479469, -0.001249268, -0.0017981213, -0.000112060974},
{0.0004542103, 8.158947e-06, -1.351328e-05, 0.00016532514, -2.4961175e-05, 3.4431698e-05, 1.5183391e-05, 0.000410441},
{-0.0003959012, -1.976171e-05, -8.133963e-05, -0.00013774817, 6.9676194e-06, -3.5916102e-05, -0.000117303505, -0.00012358921},
{-0.00018384989, -0.00010800171, -0.00019421316, -5.1432162e-05, 0.0007542683, 0.00056871615, 6.277671e-05, -5.6646753e-05},
{0.0010385996, 0.01562402, 0.0032316924, -0.024691192, -0.023162762, -0.0025335792, -0.0012729041, 0.08713263},
{-0.0027367377, 0.024969932, 0.0061575677, 0.07296748, -0.13133916, -0.017093536, -0.12851746, 0.0037235972},
{-1.8302078e-05, 6.186123e-05, -9.286919e-06, -0.00018668351, 0.0026072124, -3.9233622e-05, -8.2905324e-05, -4.7536556e-05},
{0.001408358, 0.015517993, 0.009740269, 0.007665295, -0.02642378, -0.010939785, -0.0028878916, 0.017212264},
{0.011416112, -0.0034837967, -0.034310758, -0.019660331, 0.058576223, 0.04210498, 0.12981811, -0.0014878823},
{0.0015795996, 0.0021277566, 0.0056535765, 0.00044057597, -0.020009078, -0.00046281854, -0.0019787024, 0.0058841878},
{3.7377824e-05, 3.920453e-05, 4.5273075e-05, -1.8110279e-05, 3.0105819e-05, 4.620685e-05, 1.9419593e-05, 6.737452e-05},
{-0.0046888012, 0.022172177, 0.008628585, 0.012463165, -0.017832842, -0.0099949725, -0.0030192826, 0.015008599},
{-0.01641757, -0.0010078994, 0.0017257713, 0.00718739, -0.0054660067, 0.0059924573, 0.0027885425, 0.002732751},
{-0.016890276, 0.003111031, 0.012199761, 0.022589386, 0.0017422482, -0.021781337, -0.0010576899, 0.017450318},
{-0.004335924, -0.00013693214, 0.013270145, 0.025700003, -0.016054431, -0.034927387, -0.0056024133, 0.033486854},
{0.001163457, -0.0036233752, -0.0055872495, -0.00139074-0.0001526066238, -0.0028313638, -0.0007434362, -0.0005686201, -0.009247813},
{-1.676073e-05, -8.048709e-06, 2.8825949e-05, -4.544542e-06, -6.6264856e-06, 4.095908e-05, 8.560609e-06, 7.156383e-05},
{-5.666058e-05, -2.997292e-05, -0.00022114378, 4.991142e-05, 0.00028389913, -0.00017602317, 8.827187e-06, -6.565746e-05},
{0.06639831, -0.005004797, 0.00425469, 0.0019345186, 0.01600916, -0.0045660185, -0.002794805, -0.0013592874},
{-0.00011783553, -0.00011144906, 5.1712186e-06, -6.973509e-05, -5.9951464e-05, 2.9020805e-07, -0.00014411469, -5.4435273e-05},
{0.00024681733, 8.224658e-05, 1.110419e-05, 2.4534e-05, -5.3406166e-05, -1.5781518e-05, 2.7924516e-05, 1.6238759e-05},
},
{{-0.00020700491, -0.00014265328, -0.000273867, -0.00011642976, -9.546244e-05, 0.00014103409, -1.8808374e-05, -3.2273303e-05},
{-0.030517971, 0.0011822945, -0.00092248875, -0.00064699084, 0.0030360268, 0.022045497, 0.06601791, 0.0017683316},
{-0.022289962, 0.013597165, 0.010097818, 0.061912786, -0.07640458, -0.010738589, -0.051829275, 0.011070359},
{-0.0055647325, 0.005136026, -0.005917718, 0.0031549106, -0.0025127202, 0.0001177383, -0.0017068561, 0.0036130678},
{-0.00027892485, -8.783815e-05, 0.00027059828, 0.00024080573, 5.4030384e-05, -5.6429206e-05, -4.3923577e-05, 0.00085229333},
{-0.00026774246, -0.00013323894, -6.289867e-05, -0.00019808719, -0.0002324597, 7.2510543e-06, -2.4008223e-05, -8.446299e-06},
{-0.000118354605, -5.7346933e-05, -0.000112218964, -0.000238299, 0.00012759969, 0.00073018647, -1.5071873e-05, -2.6189862e-05},
{-0.012676199, 0.033873416, 0.002184056, -0.017918382, -0.008153315, -0.003360414, 0.013289075, 0.02007958},
{-0.07473556, 0.0054537775, 0.009454324, 0.008756363, -0.041243568, -0.007941708, -0.106695734, -0.0017530571},
{8.1234204e-05, -0.00013313993, 4.254839e-05, -0.0002535516, 0.0022166248, 0.00014973534, -4.873524e-05, 0.0003377857},
{-0.0033684212, 0.002027664, 0.027764287, 0.0034076478, -0.033938445, -0.009787793, -0.000105109786, 0.026917195},
{0.07369632, -0.0016907234, -0.010752769, -0.02094642, 0.008021149, 0.008187058, 0.096685745, -0.0050948234},
{4.2728563e-05, 0.0011513412, 0.04211575, 0.0016454651, -0.032530278, -0.0041650445, 0.0025500543, 0.0063322736},
{0.00011304359, -1.9966557e-05, 5.446323e-05, -1.293658e-05, 1.0525797e-05, -1.485681e-05, 6.325514e-05, 2.8560005e-05},
{-0.01712784, 0.015607782, 0.02132188, 0.0057344525, -0.009636315, -0.0004999907, -0.001298081, 0.004753983},
{-0.03705793, 0.0005149215, -0.002460797, 0.0037619153, -0.0118926205, 0.0139539465, 0.0014548401, 0.004836694},
{-0.019330628, 0.02298051, 0.0064534163, 0.032267768, 0.0042586266, -0.006955064, -0.0054413658, 0.009795649},
{-0.016652713, 0.0061870953, 0.0607314, 0.013084249, -0.009710399, -0.006220627, -0.0015175669, 0.013060047},
{0.002704121, -0.0026892007, -0.008699815, -0.0061711487, 0.002835624, 1.4971926e-05, 0.002150913, -0.004880305},
{1.5329704e-05, -2.165494e-05, -4.178187e-05, -2.8127264e-05, 2.3188622e-05, -1.9755314e-05, 5.6093245e-06, 1.4768911e-05},
{-0.00011877977, -0.00014265202, -0.00015907262, -7.700428e-05, 0.00018443505, -0.00013893661, -3.2919874e-05, -1.6886817e-05},
{0.033014644, -0.00034740174, 0.001945371, 0.007237931, -0.00027917558, -0.007089774, -0.0010019257, -0.0024751015},
{-0.00038124507, -8.457275e-05, 4.2313436e-06, -6.1088664e-05, -3.4571387e-06, -3.35292e-06, -0.0005455779, -5.898775e-05},
{1.4035348e-05, 3.9596438e-05, 3.1973297e-05, 2.6505648e-05, -3.3777404e-05, -1.1097249e-05, 3.7653583e-05, 2.8671904e-05},
},
{{-0.00017908185, -9.947646e-05, -0.0002395522, -7.908596e-06, 5.124856e-05, 0.00011668797, -4.4463857e-05, -6.1764236e-05},
{-0.03763493, 0.0005457729, 0.0018926304, -0.0033764394, 0.0020340132, 0.035010394, 0.014157693, 0.0072483737},
{-0.06451611, 0.015788233, 0.006193401, 0.02385501, -0.0037390015, -0.004799493, -0.019412799, 0.005283964},
{-0.0022354312, 0.0060537606, 0.0034072674, -0.0031495357, -0.001637348, 0.00018525931, 0.00323925, 0.012204936},
{-1.9236948e-05, -5.990945e-05, 0.000111683315, 0.00018653469, -0.0001766497, -9.990711e-05, -8.661252e-06, 0.00059349847},
{-0.0003549442, -8.795633e-05, 0.00011696624, -0.00016083803, -0.00021265332, 9.002242e-05, -0.0001271519, -2.3536839e-05},
{0.00012449328, -9.6770644e-05, -0.00016585442, -0.00022893403, 0.00092083466, 0.00037732266, 0.00059691945, 1.3274625e-06},
{-0.012457706, 0.0069400044, 0.013670219, -0.016948786, -0.026002267, -0.0026031581, 0.003401816, 0.039744925},
{-0.079187825, 0.0016210997, 0.0030174549, -0.0013985868, -0.0031676868, 0.0061227283, -0.0032167714, 0.00015501375},
{0.00016796798, -5.89754e-05, -4.3788998e-05, -0.00021491239, 0.00039237374, 0.00011762666, -0.00015826992, -1.0260235e-05},
{-0.0134155955, 0.0077497307, 0.05578557, 0.016552327, -0.014691169, -0.03021712, -0.0028342581, 0.027403077},
{0.070881814, 0.00056504935, -0.0034985435, -0.008358129, 0.0018427535, 0.0017660299, 0.04879084, 0.0037353293},
{-0.00041086614, -0.0075174114, 0.0024972605, 0.0051645646, -0.016960032, -0.0100744115, -0.0033588272, 0.0127010485},
{5.8577065e-05, 5.8272253e-05, -1.667851e-05, -4.8335864e-05, 3.383646e-05, 2.5086722e-06, 4.134046e-06, -8.25706e-06},
{-0.0037762509, 0.033789523, 0.021574492, 0.0015446878, -0.024263214, 0.002666467, 0.0013353296, 0.0072333664},
{-0.031902388, -0.001090275, -0.00029489674, 0.00826264, -0.007678183, 0.007845549, 0.003531911, 0.0063544298},
{-0.0161168, 0.007117337, 0.0036258139, 0.026704047, -0.018985404, 0.0017537578, -0.000621748, 0.009369032},
{-0.016289717, -0.0033531026, 0.020470489, 0.018688357, 0.00027755063, -0.0068412093, -0.0074373866, 0.0074520316},
{0.0017189329, -0.002010857, -0.010356231, -0.0024016234, 0.0012454906, 0.0007892759, -0.003402033, -0.004821001},
{3.4575771e-06, 2.2573666e-05, -3.41248e-05, -3.2966105e-05, -1.981445e-06, 3.0615884e-05, -1.5682239e-05, 1.377889e-05},
{-0.00015041794, -0.00012846982, -0.00032511956, -3.0302706e-05, 0.00019604358, -3.915877e-05, -7.30573e-05, -3.2441567e-05},
{-0.002092638, -0.0012333228, 7.116993e-05, 0.0093876235, -0.006070572, -0.008521324, -0.0074065817, -0.0033181363},
{-0.00026516616, -9.122271e-05, -5.0614854e-05, -9.8051794e-05, 6.505553e-06, -3.0901607e-05, -0.00076455076, -1.6334803e-05},
{8.174222e-05, 5.198729e-05, 9.849938e-06, 6.480726e-06, -8.168253e-05, -1.7861857e-05, -1.5162536e-05, 2.474365e-05},
},
{{-0.00015260662, -2.7007754e-05, -0.00017549076, -0.00012341226, -0.00061612285, 3.9733644e-05, -6.6706096e-05, -7.041718e-05},
{0.004665152, 0.0014763228, -0.0004805037, -0.0003833367, 0.005168014, 0.01875283, 0.013109882, -0.0011184854},
{-0.07114561, 0.003180383, 0.0073593957, 0.020162627, 0.008888662, 0.004966372, -0.008720466, 0.0005569427},
{0.0019744085, 0.013447391, 0.021836648, -0.0046089506, -0.0026068217, -0.0057510347, 0.0064781867, 0.01580078},
{0.00027841615, 3.4003374e-06, 0.0005240949, 5.879103e-05, -0.00023348318, 0.0003016631, -4.6220262e-05, 0.00013375355},
{-9.175721e-05, -0.00013324898, 6.208182e-05, -0.000100995945, 6.1833634e-05, 0.0001082511, -9.1688366e-05, -6.231696e-05},
{2.9595624e-06, -0.00011783654, -0.000103416925, 2.9111861e-06, 0.0007411629, 0.00026539943, -6.286419e-05, -1.0610145e-05},
{-0.019641329, 0.06683735, 0.018127773, -0.0089719, -0.002584439, -0.0013364546, 0.0011068613, 0.016851066},
{-0.061196264, -0.00014335001, 0.0042276983, 0.038254175, 0.012334712, 0.007708655, 0.0026889853, -0.004971315},
{-7.4416566e-06, -4.1902043e-05, 0.00022220972, -0.00015297468, -3.9508384e-05, -4.931706e-05, -0.00020243059, 9.779155e-06},
{-0.0038484898, 0.017638205, 0.0063797208, 0.014336973, -0.021856198, -0.004674325, -0.0036176022, 0.009265583},
{0.07070478, 6.673641e-05, -0.0021469519, -0.0029804783, -0.048836064, -0.0003956618, -0.0012829017, 0.018578224},
{-0.0030414439, 0.0019844223, 0.024579264, 0.0025747188, -0.028484195, -0.0051111407, -0.011146615, 0.005564227},
{6.553025e-05, 3.997203e-05, -1.24942835e-05, -2.248334e-05, 4.329271e-06, 3.60041e-05, 5.9313957e-06, 5.187821e-05},
{-0.009386945, -0.00012599751, 0.015499618, 0.0053677475, -0.004820756, -0.004771452, -0.004191635, 0.02664012},
{-0.0644048, 0.0005656411, -0.00062320585, 0.008077057, -0.005923154, 0.0068377894, 0.025126696, 0.0039552506},
{-0.009865384, -0.004548667, 0.012742141, 0.028759187, -0.01862543, 0.0041329926, -0.011844328, 0.004244518},
{0.0036011445, 0.0047451225, 0.012379634, 0.037546895, -0.002951576, -0.0020083236, -0.0028674265, 0.0010760484},
{0.005238513, -0.0010143784, -0.0076842816, -0.008006382, 0.0019606121, -0.0029396985, 0.001919792, -0.0033598193},
{-3.5868632e-06, 7.689423e-05, 2.9471116e-06, -3.2742282e-05, 1.008387e-05, -4.258107e-06, 2.0717434e-05, 4.9902003e-05},
{-0.0002452376, -0.0001241359, -0.00026054363, -0.00015061427, 0.00030811474, 0.00013758687, -5.2781812e-05, -6.8501926e-05},
{0.06996577, 0.00097491546, -0.0039188103, 0.004430679, -0.0033411158, -0.014034127, -0.006344154, -0.0036909927},
{-0.0003829368, -0.0001175258, -1.8151351e-05, -6.7255554e-05, 7.242556e-05, 2.1171289e-05, -0.00062114926, -1.3835647e-05},
{0.00025431786, 8.212638e-05, 3.563095e-05, 3.7213853e-05, -0.000100695564, 2.4721114e-06, -4.286296e-05, 2.4738596e-05},
},
{{-6.583791e-05, -7.2755865e-05, -0.00014820579, -1.6717544e-05, -0.00012582411, 5.5551325e-05, 8.3599065e-05, -3.5319907e-05},
{0.004514439, -0.001707322, 0.00036312014, 0.0011697043, 0.0084927445, 0.028475946, 0.01679941, -0.0008262225},
{-0.0946517, 0.0040114056, 0.0069747446, 0.00049779296, 0.03477996, -0.0010907191, -0.004326769, -0.017473452},
{-0.001937645, 0.013783642, 0.0073334016, -0.0027326536, -0.005274645, 0.0058078333, 0.001606856, 0.013133031},
{3.7358932e-06, 0.00012088083, 0.0006434582, 0.00011403198, 0.00017028175, -9.415219e-05, 1.5445911e-06, 8.845985e-05},
{-0.0004231091, -0.00011764744, -0.00021782075, -0.00015290038, -0.00034473595, -7.9120415e-05, -7.858197e-06, 4.846759e-06},
{7.424304e-05, -7.349632e-05, -0.00023856094, -0.000556307, 0.00029358678, 0.00015457309, 6.529393e-05, -1.6935628e-05},
{-0.0014735941, 0.045883723, 0.021071425, -0.009945487, -0.0057571563, 0.0016103259, -0.00085327873, 0.028217655},
{-0.05190353, 0.0023435594, 0.0020468265, -0.0016418243, 0.064242594, 0.00936274, 0.0113722775, -0.041956857},
{8.7362576e-05, -0.0002837578, 0.00023259586, -0.00018034407, 0.0014467118, 0.00032625181, 3.836649e-05, 2.8581808e-05},
{-0.005278215, 0.0027340385, 0.037161484, 0.0060321805, -0.0022112639, -0.01923733, -0.008386704, 0.026476787},
{0.009665757, 0.0018078043, -0.0012523076, 0.0013532988, -0.0839992, -0.022139927, -0.00076456764, 0.024420904},
{-0.008293808, -0.0054627294, 0.0033377674, 0.005802056, -0.0062973304, -0.008092544, -0.0011112362, 0.003135477},
{3.6675926e-06, 6.9178845e-05, 3.082719e-05, 4.7872263e-06, 2.2058191e-05, 3.8886283e-05, 1.6222899e-05, 4.8421647e-05},
{-0.002717212, 0.0035904308, -0.002069949, 0.006693042, -0.011916401, 0.0014441578, -0.00039358495, 0.008317668},
{-0.009504601, 0.00054173055, 0.002179829, 0.0034948257, 0.0025015236, 0.01640227, 0.012714737, 0.0049533653},
{-0.003197927, 0.0006048479, 0.0036529696, 0.023712503, 0.0013734109, 0.0031649189, -0.00454466, -0.0013768747},
{-0.009744166, 0.0042522913, 0.031716265, 0.009238489, 0.00059974415, -0.00022454273, -0.0010859614, 0.014826763},
{0.004417564, -0.0006086269, -0.0061263354, -0.004545915, -0.0021714787, 0.00025143684, 0.0029387488, -0.0049890582},
{-5.577646e-06, 5.641933e-08, 1.7155236e-05, -5.4727134e-05, 7.995282e-06, -3.788683e-05, 3.8814826e-05, 1.3220479e-05},
{0.00013563824, -0.00030668968, -0.00040859208, 2.869286e-05, -3.636154e-05, 5.5514385e-05, -5.6370343e-05, -0.00010293855},
{0.0047374056, 0.0022173205, 0.004931745, 0.0055659967, -0.013857756, -0.076198176, -0.009705667, 0.03954876},
{-1.4430535e-05, -0.00015698327, 1.1158559e-05, -3.6118774e-05, 9.052636e-06, 4.3923323e-05, -8.83932e-05, -6.7839326e-05},
{1.0910862e-05, 3.1378466e-05, -1.5529618e-05, -1.4150812e-05, -2.0802054e-05, 2.4606128e-05, -2.2461101e-08, 2.5578318e-05},
},
};

/* Dense: */
double dense_bias[DLBC_AND_DLWD2] = {0.101606466,-0.12274384,-0.14634882,-0.36062688,0.116006285,-0.17904446,0.15688682,-0.2004121,0.23806223,0.13052492};

double dense_weights[DLWD1_AND_DLIC][DLBC_AND_DLWD2] = {
{-0.034500457, 0.03659031, 0.005432771, 0.04039739, -0.07665064, 0.02325508, -0.03854633, -0.032716434, -0.0694438, -0.04295465},
{-0.02052815, -0.03051814, 0.030379118, 0.032622993, -0.06398165, -0.010646109, -0.05508342, -0.014007825, -0.05104958, -0.052526258},
{-0.0478845, -0.0074394965, -0.0022001998, 0.04145521, -0.098717, -0.019815966, -0.030827232, -0.0058443705, -0.031723663, 0.010712726},
{-0.008078032, 0.015434614, 0.0027217313, 0.012586033, -0.0487686, 0.0018229155, -0.019293765, 0.01768246, -0.057187524, -0.034018178},
{-0.04682733, 0.018171927, 0.025123263, -0.0149146095, 0.0040726145, 0.017760692, -0.0108602, 0.00057802984, -0.025832599, 0.0014540738},
{-0.08444339, 0.09397946, -0.037173722, -0.011297499, -0.12648389, 0.03867364, -0.0047688163, 0.051701993, -0.10593166, -0.026953416},
{0.059015688, 0.07345211, 0.033093028, 0.070680164, -0.11629696, 0.024025496, -0.10650526, 0.07435137, -0.15252484, -0.027863195},
{0.053278767, 0.003084086, 0.13488898, 0.1088389, -0.21922906, 0.024337316, -0.054234903, 0.002011926, -0.06694219, -0.15669855},
{0.036235996, -0.0069759553, -0.09098539, 0.0151275825, 0.026626343, -0.0063907295, -0.042182896, -0.023856873, 0.04351365, 0.047864746},
{-0.048656207, -0.02805066, 0.036749452, 0.064641304, -0.055650163, 0.00077643024, 0.13568318, 0.001331496, -0.046779327, -0.029152835},
{0.049863398, -0.01244366, 0.09159086, 0.033437256, -0.05976972, -0.002173858, -0.10015014, 0.0076988707, -0.072246976, -0.03730011},
{0.003738959, 0.017665358, 0.006046843, -0.01562639, 0.0020295882, -0.00036858793, 0.035488952, -0.015839133, -0.015685696, 0.011961737},
{-0.08123298, 0.0075337472, -0.018912314, 0.045992155, -0.154533, 0.018974897, -0.09747909, 0.038597167, -0.09992349, -0.042526122},
{0.00650662, 0.066322535, -0.0036619548, 0.06236745, 0.018521948, 0.04983402, -0.055843562, 0.10170628, -0.03656609, -0.0053286455},
{0.023496088, -0.008396048, 0.00013343357, -0.009799589, -0.12660328, 0.0092181815, -0.10411668, -0.009639148, -0.14568391, -0.07692924},
{-0.03453811, 0.0025997385, 0.15059407, 0.08464676, -0.10270257, 0.01220545, 0.035724584, 0.036145862, -0.06631672, 0.0037313038},
{0.038346574, -0.01398755, 0.011144169, -0.0075074863, -0.072770014, -0.025347868, 0.010885204, -0.058357596, 0.08875631, 0.027662324},
{-0.035915077, 0.014749862, 0.048194136, 0.03243461, -0.09107902, 0.0013137759, -0.023379084, 0.027304232, -0.007687581, -0.00010855444},
{-0.0034844591, 0.021475814, 0.017276715, 0.02123217, -0.0031596834, 0.017196998, -0.011500518, 0.026626963, -0.0069735763, -0.02186628},
{0.00027198106, -0.001320281, 0.008289014, 0.0081355255, -0.03022492, 0.0032249864, -0.0063795303, 0.014403385, -0.025709469, -0.010613381},
{-0.03852554, 0.014733173, 0.0062423884, 0.028883612, 0.013522773, 0.0036767179, -0.069754325, 0.045198202, 0.0046792696, -0.024363184},
{-0.08318417, 0.0067654755, 0.033571694, 0.056053042, -0.064587, 0.0056657162, -0.11789417, 0.0783947, -0.14298506, -0.12189266},
{-0.0030266829, -0.0033031339, 0.027027456, -0.027027963, -0.026205808, -0.05700065, -0.12024275, 0.046179283, -0.12121854, 0.005840358},
{-0.029723871, 0.022840766, 0.06356522, 0.0661027, -0.008242145, -0.0038830792, -0.03677266, 0.008957242, -0.073634975, -0.013811896},
{0.09864003, -0.035678748, 0.08970887, 0.018104263, -0.070316434, -0.0028232706, 0.10154545, -0.044603787, 0.20153867, 0.037243374},
{-0.06919367, -0.018391415, 0.033949785, 0.047626052, -0.042213302, 0.0085779065, -0.08186984, 0.02260801, 0.01828956, -0.019948656},
{-0.07818563, 0.04159291, -0.007846899, 0.043555852, -0.02983385, -0.018500924, 0.085632816, 0.014438576, -0.003758315, -0.003621369},
{0.054780193, 0.025498481, -0.078863755, -0.01756991, -0.0047650994, -0.004790484, -0.04786845, -0.036943603, -0.002007445, 0.015709672},
{-0.019949658, 0.0006385442, -0.057004437, 0.035970967, 0.03424589, 0.003157037, -0.028294709, 0.037806068, 0.00012559016, 0.02631258},
{-0.0694146, 0.03691217, 0.028715642, 0.094219, -0.07405854, 0.007865744, -0.1507861, -0.011399844, -0.16519944, -0.030204285},
{0.034486346, 0.06503564, -0.058708925, 0.013763753, -0.11338792, 0.012340228, -0.05052115, 0.0020784517, -0.10707234, -0.058336902},
{-0.09542479, -0.009165001, 0.09051222, 0.12025834, -0.068456054, 0.04289532, -0.009933329, -0.023454012, -0.088649765, -0.027191164},
{0.10523521, -0.04471551, 0.07785804, 0.028487852, -0.1014921, 0.0097110225, 0.050558202, -0.03720908, 0.12152918, -0.035840604},
{0.0069094, 0.040894743, -0.029992543, 0.019727765, -0.038729757, 0.013328234, -0.033989973, -0.025077777, 0.010172291, 0.05611346},
{-0.025942868, 0.0067732283, 0.035856564, 0.056778777, -0.1198565, -0.006675934, -0.0013927949, 0.03575588, -0.10243875, -0.04643705},
{0.14756972, 0.14175776, -0.1495708, -0.25773633, 0.28386557, 0.031956814, -0.13276286, 0.0062760254, -0.038549695, 0.053823456},
{0.095445685, 0.036698073, -0.06765502, -0.034150388, -0.016478555, 0.026153546, -0.0047213505, -0.053725928, 0.11762993, -0.030156676},
{-0.10244491, 0.02822902, -0.02545206, 0.008628695, -0.08958348, 0.025420912, -0.061260335, 0.03608286, -0.06468134, -0.0034384183},
{0.11471164, 0.07078352, 0.10438528, 0.14316598, -0.24515687, 0.08107097, 0.053044427, -0.058990132, -0.014399261, -0.06225359},
{-0.092793405, -0.0030573893, 0.07963591, 0.10370757, -0.03254511, 0.04354565, -0.057328325, 0.047651313, -0.046321105, -0.082981646},
{0.019252898, -0.06121291, 0.10825804, 0.03884826, -0.08745284, -0.0051943925, 0.10679443, 0.02012847, 0.06894412, -0.018086808},
{0.048454586, 0.06445534, 0.029122757, -0.007337394, -0.08325087, 0.030265803, -0.11094683, -0.020419603, 0.04176434, -0.014721205},
{0.04320437, 0.04313217, -0.007119644, 0.016665747, -0.10838153, 0.010844145, -0.02581979, -0.06818399, -0.06294738, -0.0068441923},
{0.087837376, 0.11156151, -0.21247989, -0.24674372, 0.1959525, -0.030553348, -0.04124304, -0.013326131, 0.00041585622, 0.022250054},
{0.12534946, -0.025853466, -0.01637674, -0.004520033, -0.020298647, -0.040633716, -0.012234799, -0.058190715, 0.14287809, 0.016450752},
{-0.008146286, 0.0310407, -0.013203759, 0.0396755, -0.09603948, 0.011451228, -0.077484146, 0.010608459, -0.04587614, -0.07347077},
{0.11365318, 0.012756449, 0.089712605, 0.09501845, -0.18915124, 0.06333046, -0.050084494, -0.00036813837, 0.042416967, -0.045507222},
{-0.09833734, 0.017924005, 0.062293258, 0.05926797, -0.026457863, 0.053729385, -0.021770507, 0.010452726, -0.024313966, -0.007863319},
{-0.04571447, -0.058206208, 0.08843893, 0.0287332, -0.026601315, -0.0036638745, 0.054553617, -0.034976617, -0.00086421147, -0.027387388},
{0.09132493, 0.020480106, -0.030541543, -0.0062667187, -0.016464941, -0.021809429, -0.032306198, 0.0039190734, -0.02475223, 0.029255534},
{0.007789677, 0.042709965, -0.05950498, -0.01655713, -0.020749124, 0.003156115, 0.013482632, 0.004686399, -0.012253349, 0.034745302},
{0.1652879, 0.13126431, -0.1467139, -0.21380569, 0.13897046, -0.0057920893, -0.09474821, -0.035812557, 0.042973608, 0.07316248},
{0.11881873, -0.010019724, -0.07889664, 0.0005720912, -0.110818036, -0.053612392, -0.019952139, -0.11168122, 0.1898975, -0.01057625},
{0.008121034, 0.011252019, -0.028557116, -0.019107522, -0.07963154, 0.015540035, -0.040845845, -0.017684435, -0.0075265863, -0.027954672},
{0.022894729, -0.045626637, 0.1105546, 0.12519446, -0.15997443, 0.0380792, 0.008660634, -0.009810558, 0.08206723, -0.06296856},
{-0.029144702, -0.04427182, 0.051297303, 0.044192925, -0.09206413, 0.004684817, -0.03819811, 0.05655933, -0.034694348, -0.0048970957},
{0.0072869, 0.0051093413, -0.01189108, -0.0033109994, -0.061367042, 0.009446846, 0.057770465, 0.03360318, -0.10177719, -0.0043643457},
{0.16955511, 0.041657403, -0.15004486, -0.037305214, 0.031123653, -0.019194596, 0.019815573, -0.07240556, 0.019730134, 0.12422095},
{0.017716039, 0.04885438, -0.093201034, 0.032089204, 0.010301513, -0.014791286, -0.005473133, -0.003322436, 0.006880164, 0.044606313},
{0.16493526, 0.16327515, -0.24625307, -0.18776351, 0.17755598, 0.005607361, 0.0085711125, -0.08424464, 0.028665645, 0.07986202},
{0.06702311, -0.03664938, -0.06458431, 0.048482824, 0.042593863, -0.022627363, -0.0075669927, -0.068613894, 0.1731484, -0.018299658},
{-0.043966, -0.073260516, 0.09111485, 0.042120926, -0.029360503, -0.055453725, -0.11677989, -0.037542615, 0.042817086, -0.014010595},
{-0.074910164, -0.04815021, 0.0035287354, 0.09564031, -0.01813373, 0.05254614, -0.1415931, 0.04196609, -0.118984394, -0.08919893},
{0.007982095, 0.09993081, 0.00842553, 0.016566155, -0.055657055, 0.01423463, -0.0925671, 0.033785824, 0.00052645855, -0.03497283},
{-0.04089947, -0.024759667, 0.032036975, 0.0064747366, -0.007512157, 0.0100336615, -0.014010017, 0.007475092, -0.048521772, 0.037916314},
{0.22952853, 0.10362508, -0.080249794, -0.061021708, 0.0028775483, -0.06905213, -0.11098759, -0.098193094, -0.019712593, 0.07788896},
{0.08501202, 0.041810457, -0.02590536, 0.021814488, -0.0055296794, -0.020499103, -0.08542169, -0.026279123, 0.07598884, 0.027077617},
{0.04134176, 0.016712425, -0.11426076, -0.13680504, 0.14864722, -0.01914738, -0.029924313, 0.019773081, -0.12420093, 0.016920907},
{-0.010965732, -0.08639478, -0.06033352, -0.0024991026, -0.03843804, -0.03048717, -0.08846916, 0.001309898, 0.0859514, 0.077289134},
{0.009686932, -0.04579991, 0.00597544, -0.003233141, -0.06329745, -0.032494713, -0.087794475, -0.032095436, 0.031941008, -0.04035191},
{-0.09333953, -0.055959377, 0.09896976, 0.055908453, -0.10187167, -0.0020948492, 0.0011783642, -0.022335365, -0.13453427, -0.1308686},
{0.057098992, 0.0008577129, 0.02595204, 0.009294536, -0.044872083, -0.009034604, -0.03615107, 0.0023651107, 0.096505076, 0.04664927},
{0.055165224, 0.030214185, 0.07059531, -0.0043837186, -0.045759067, -0.0028277482, 0.07638504, -0.029098835, 0.10485733, 0.049613584},
{0.15861402, 0.13664378, -0.115126275, -0.010429951, 0.106844746, -0.0024084072, -0.041642964, -0.068850935, -0.07021467, 0.007684025},
{0.06995228, 0.01540658, -0.09796984, -0.0089126825, -0.059802268, -0.05338879, -0.004598032, 0.02646497, 0.010240611, 0.011199227},
{0.02317442, 0.022921592, -0.092709966, -0.152136, 0.17738646, 0.03415804, -0.058183722, 0.18785973, -0.12501298, -0.08194091},
{0.015635593, 0.021429196, -0.18947272, -0.02004229, 0.011528313, 0.013170206, -0.064550616, 0.002051564, -0.05421719, 0.010837582},
{-0.01056409, 0.012251654, -0.052973893, 0.015795052, -0.09250908, 0.009361439, -0.11085465, -0.0063912203, 0.062127408, 0.0677508},
{-0.08701711, 0.02005507, 0.05626646, 0.0234506, -0.045961265, 0.03243244, -0.054615654, 0.033880528, -0.19838586, -0.029875416},
{0.005268132, 0.048394307, -0.008060757, 0.018276801, -0.064190395, 0.032137446, 0.012194256, -0.030241955, 0.13086422, 0.008804854},
{0.06599007, 0.018048404, -0.003072721, -0.009269249, 0.0013209068, -0.0067553176, 0.07383255, -0.013393004, 0.17959642, 0.0723344},
{0.14629872, 0.0990049, -0.095931955, -0.049189724, 0.03702222, -0.023386918, 0.019818757, 0.03598331, -0.02266103, -0.029143168},
{0.09082364, 0.045622043, -0.16949217, 0.041613936, -0.03273188, -0.069562525, -0.094827965, -0.04955259, -0.10767001, -0.047188833},
{-0.08333184, -0.10051467, -0.05985183, -0.046545897, -0.022428524, 0.01167436, -0.09292684, 0.26373482, -0.2970595, -0.07608747},
{0.033338062, 0.040532377, -0.19303298, -0.06776631, 0.013979699, 0.041328542, -0.005496307, -0.025046812, -0.10154547, -0.040620685},
{0.072452344, -0.009391678, -0.036174778, 0.012990853, -0.09565118, -0.01660642, -0.054270577, -0.003607297, -0.013495807, -0.05291217},
{-0.027427346, 0.028634258, 0.08268927, -0.015484674, -0.098363586, -0.014464311, 0.0026825073, 0.00042648902, -0.049097598, 0.04865433},
{0.077008426, 0.08044811, -0.08896896, -0.016356869, -0.041473653, 0.02765351, -0.03930401, -0.027994512, 0.052126303, 0.039619893},
{0.03709197, 0.01941158, 0.070876844, -0.014459103, 0.041267805, 0.016109329, 0.034459457, -0.024684425, 0.12881275, -0.0014959733},
{0.16646867, 0.049373027, -0.07246946, -0.056423254, 0.049369164, -0.020236224, 0.08534514, -0.07664987, -0.13892373, 0.049560912},
{0.06272838, 0.086737014, -0.11057246, -0.020670405, -0.042057443, -0.05506001, -0.08748882, 0.061515335, -0.12076658, -0.05358487},
{-0.044154774, -0.07183539, -0.059995644, -0.09113399, 0.09463725, -0.004648236, -0.086882055, 0.25635657, -0.11235038, -0.026841074},
{0.17084432, 0.037953544, 0.0034026771, -0.041351505, -0.012288235, 0.002214575, 0.016812017, -0.09833972, 0.016188618, -0.060981944},
{0.04502209, -0.015323263, -0.08006231, -0.021037376, 0.05137046, 0.003838425, -0.08954334, -0.030793296, 0.027972333, -0.03325596},
{-0.016129436, 0.021713078, 0.13891822, 0.005951774, -0.06446835, -0.010153096, 0.013888617, -0.023092156, 0.12363122, 0.1310024},
{0.050779168, 0.08875241, -0.080200456, -0.059362803, 0.015414751, 0.017152915, -0.14184913, 0.039715845, -0.0052518453, -0.12700462},
{-0.00984182, 0.019604508, 0.033208832, -0.000923588, 0.03552027, 0.007544874, 0.023190755, -0.0066574556, 0.006800941, 0.018637698},
{0.12930769, 0.032613423, 0.012743198, -0.015089417, -0.037529476, -0.056715764, 0.030062355, 0.052790076, -0.10364777, -0.011590898},
{0.07495572, 0.011042216, -0.11141762, -0.021108743, 0.069967434, -0.067123584, 0.033389423, 0.020726267, -0.18290988, -0.03929511},
{-0.037731763, -0.10991946, -0.0053421166, 0.0008083604, 0.025977848, 0.043247126, 0.061600104, 0.12580526, -0.11309097, -0.031870797},
{0.21392763, 0.10276421, -0.012609708, -0.020719862, -0.055440176, 0.033932194, -0.040962644, -0.055986024, 0.0051323613, 0.03359237},
{0.07699389, 0.070768535, -0.059193127, 0.0017173436, -0.06543911, -0.011141511, 0.04696436, -0.05831882, -0.015456163, 0.004885492},
{0.014760049, 0.028543895, 0.10507766, 0.004008478, -0.054923203, -0.017965188, -0.00247316, -0.026240809, 0.1920952, 0.099505536},
{0.07465143, 0.1477258, -0.21166536, -0.092357464, 0.021177702, 0.011009333, -0.15036301, 0.076192886, -0.1574459, -0.09308186},
{0.0009653631, -0.006687181, 0.03381866, 0.01611634, -0.014107143, 0.0032604549, 0.0019210245, 0.028500048, -0.005822366, 0.008418536},
{0.07199925, -0.018748928, 0.0868401, -0.041833427, 0.054850344, -0.008891627, -0.037660375, -0.059398293, -0.044649385, 0.03157624},
{0.11307429, 0.009829817, 0.007447283, 0.024463313, 0.03324929, -0.072311625, 0.0348414, -0.07827383, -0.029250426, 0.17016521},
{-0.042445827, -0.09913498, -0.011286422, -0.014819583, 0.038861804, 0.06897134, -0.07080736, 0.0480303, -0.06432977, -0.052243743},
{0.232378, 0.010885635, 0.115156665, 0.034662362, -0.069374375, -0.001937836, 0.0027264224, -0.1561028, 0.10614692, -0.020945558},
{0.10920389, -0.08409702, 0.04080807, -0.006728308, -0.03518416, -0.047875416, 0.049731325, -0.033960465, 0.015613938, 0.020921577},
{0.048590634, 0.038023107, 0.12755464, 0.009888638, -0.049267106, -0.01057007, -0.017469795, -0.005718564, 0.14566, 0.029056344},
{0.11908459, 0.09207888, -0.18822972, -0.045834582, 0.012827072, -0.05962692, -0.053969044, 0.082428426, -0.27358386, -0.10535999},
{-0.032998078, 0.018313605, 0.02499082, -0.0128115155, 0.014540102, 0.0049425447, -0.01029708, 0.018358316, -0.017288657, -0.0055500427},
{0.09770925, -0.042189643, 0.046536334, 0.013568639, 0.0062342337, -0.039680876, -0.040138815, 0.03977697, 0.06996904, 0.009118946},
{0.11100904, -0.11182475, 0.05457156, -0.032552518, -0.027881773, -0.10833736, 0.0061388826, -0.11428381, 0.13228557, 0.10996059},
{0.11724896, -0.14206582, -0.08238769, -0.008278676, -0.037060168, 0.000118512915, -0.002165424, 0.096666515, -0.06561802, -0.05444882},
{0.055613406, -0.071359895, 0.1605926, 0.012208877, 0.019028297, 0.0168824, 0.05181889, -0.12419851, 0.19588669, -0.05781728},
{-0.010375909, -0.09784645, 0.11212693, 0.0003024519, -0.11593262, 0.017029908, -0.012508654, -0.05460955, 0.025157472, 0.049886547},
{-0.07616815, 0.027967438, 0.06816169, 0.0020658127, -0.022566767, 0.008478383, -0.016441496, 0.03589015, -0.05620137, -0.013729429},
{0.15453069, 0.16228068, -0.14652412, -0.09150791, 0.035756428, -0.07968844, -0.16504368, 0.0035211507, -0.17312746, -0.053579006},
{-0.013865888, -0.001695586, 0.012984396, 0.00092449936, 0.02828427, 0.01642003, 0.0033849308, 0.03763877, -0.02401861, -0.0017880531},
{0.014579623, -0.02760598, 0.04502286, 0.018560208, -0.012876434, 0.036254227, 0.021187993, 0.0434389, 0.00886828, 0.040333595},
{0.06273231, -0.12570459, 0.033096466, -0.08409592, -0.120911665, -0.12016432, 0.074631944, -0.10878398, 0.114057116, 0.17440324},
{0.027765462, -0.15315074, -0.080945075, 0.03017555, -0.059803065, 0.028053995, -0.09700895, 0.0015062597, -0.040802997, -0.06704751},
{-0.13626473, -0.018030114, -0.004652638, -0.021765307, 0.05728789, 0.0171021, 0.03190302, 0.07708539, -0.06940828, -0.023982406},
{-0.13901967, -0.042724155, 0.113043614, -0.023240466, -0.06528529, 0.07922544, -0.052209254, 0.027544104, 0.06876465, -0.002232254},
{-0.14787291, -0.0034438337, 0.091735564, -0.0058081863, 0.04696916, 0.0024022707, 0.04752281, 0.09693826, -0.039753225, -0.020290177},
{0.252062, 0.05911107, -0.13807069, -0.04547346, 0.07193231, -0.040237997, 0.015358243, 0.027648987, 0.0026344876, 0.1039526},
{0.03855503, 0.04790466, 0.027695358, -0.016378377, -0.0023328578, -0.00013611806, -0.044474926, -0.00898336, -0.046807863, -0.0054018544},
{-0.010952143, 0.015169279, 0.03732755, 0.06409727, -0.031910602, 0.027673077, -0.039296575, 0.01889816, -0.03789747, 0.019926384},
{0.026642254, -0.22664133, 0.07877146, 0.01431657, 0.004450093, -0.038374394, -0.032562252, -0.07564932, -0.013293482, 0.0511428},
{0.0024137744, -0.09425378, -0.101603165, -0.0044423174, 0.054292187, 0.07517011, 0.018577721, 0.070056416, 0.01960605, -0.024230005},
{-0.24042736, -0.009186494, 0.10033646, 0.0068894755, 0.019482318, 0.062093265, -0.063466266, 0.12780958, -0.06273383, -0.022842662},
{-0.18286508, 0.041748274, 0.03177983, -0.017485883, -0.11823219, 0.05934459, -0.0034298883, 0.10619498, -0.044418957, -0.0021593515},
{-0.08904241, 0.040485837, 0.026582101, -0.009565827, -0.02952891, 0.041504316, 0.02515647, 0.12743384, -0.07885655, 0.007613546},
{0.1441032, 0.018375877, -0.05247098, 0.0092603965, -0.022472626, 0.039324816, 0.043633644, -0.00054090284, 0.1397503, 0.083288714},
{0.038068086, 0.016086949, -0.013995597, -0.004219316, 0.06534596, -0.025162393, -0.0077333213, -0.023466887, -0.08888786, 0.0030729629},
{-0.03240848, -0.0025229743, 0.06872983, 0.0625061, -0.11724514, -0.03880988, -0.11504652, 0.015679939, 0.07321135, -0.037952203},
{0.015595077, -0.16976961, 0.020692382, 0.05460893, -0.011332056, -0.04585139, 0.026777875, -0.00023865708, 0.07756519, 0.06692375},
{0.055477146, -0.037878025, -0.14271906, 0.015768347, 0.054842487, 0.101887405, -0.063364215, -0.009212626, -0.008880816, -0.016648466},
{-0.23355049, 0.03157464, 0.071537875, -0.05480809, -0.017981887, 0.064884216, -0.07608847, 0.066923715, -0.10852947, -0.056785032},
{-0.17813052, 0.024232028, 0.025843825, -0.01611264, -0.051713575, 0.078325585, -0.08967167, 0.14543737, -0.15800165, 0.022034265},
{0.013396884, 0.0821877, -0.08235242, -0.016039507, -0.037843075, 0.004518989, -0.10996454, 0.09633082, -0.09877965, 0.0047962945},
{0.15924186, 0.04194787, 0.036836613, -0.031802684, -0.06783434, 0.05053806, -0.018916342, -0.1591459, 0.18277761, 0.042011052},
{0.071854174, 0.0809782, -0.025790686, -0.016191883, 0.08074643, -0.026656594, -0.0033292784, -0.023584576, -0.002853556, -0.0013189877},
{-0.02178788, -0.061117325, 0.08090127, 0.054952543, -0.05828882, 0.0040295185, 0.02586642, 0.09127171, -0.011713023, 0.013184575},
{-0.06764268, -0.2190045, 0.09109727, 0.05245525, 0.015309094, -0.021565866, 0.01310275, 0.050265197, 0.03868536, 0.044017266},
{0.036712438, -0.14794277, 0.08227803, 0.0048203776, -0.016312135, 0.16004612, -0.08494099, 0.12709936, 0.08927509, -0.17976183},
{-0.052270357, 0.07611181, 0.08448206, -0.030375306, -0.10047794, 0.027101936, -0.06505352, 0.042012867, -0.115791455, -0.011525899},
{-0.0034783187, 0.08556162, 0.06571109, -0.03465489, -0.062073786, -0.005463582, -0.03739262, 0.029469172, -0.0937343, 0.0036445127},
{0.04483482, 0.0922104, -0.043367356, -0.017446911, -0.0025690363, -0.024942318, -0.019392163, 0.05447722, -0.14477697, 0.011889999},
{0.19987169, 0.03582238, -0.04376113, -0.043582626, 0.03598105, -0.00038222782, -0.0028653238, -0.098729365, 0.054347828, 0.14541},
{0.06957478, 0.055900596, -0.005857081, -0.007841149, 0.04306307, -0.040909223, -0.019150926, -0.027315192, 0.013721352, 0.023460213},
{-0.04259323, -0.023755407, 0.09859921, 0.044712167, -0.0257497, 0.028388554, -0.098772936, 0.08135296, -0.05825107, -0.09502937},
{-0.055078216, -0.07521263, 0.106136456, 0.1065196, -0.07291587, -0.017516442, -0.033313885, 0.05710506, -0.01944701, 0.030546488},
{0.04149919, -0.1484053, 0.08982705, -0.005912716, 0.010485885, 0.14655598, -0.035284217, 0.121801674, -0.00063401466, -0.0343236},
{0.12483239, 0.16280977, -0.03115073, -0.021959888, -0.02513633, -0.034697592, -0.01706061, -0.039966885, -0.086148895, 0.08404342},
{0.16695815, 0.11725763, -0.07669282, -0.02094072, -0.055549253, -0.02211885, 0.059700374, -0.10524493, -0.07238148, 0.14590448},
{0.17741808, 0.019387024, -0.024303216, -0.020582799, -0.019903233, -0.05328157, 0.083869435, -0.022326855, 0.03285682, 0.017132055},
{0.03160783, 0.0060266787, 0.0135018965, -0.039978214, 0.11128831, 0.0016381234, -0.033051297, -0.012248168, -0.053575534, 0.011227422},
{0.045725714, 0.013803625, -0.04588435, 0.0067255595, 0.00013208414, -0.02373847, 0.008960992, -0.008411418, 0.065433554, -7.728071e-05},
{0.06813885, -0.04777594, 0.0485777, 0.09717352, -0.0070182006, -0.0017142323, -0.03998973, 0.036317043, -0.11090158, 0.01025593},
{-0.089445285, -0.13456231, 0.14966951, 0.050967906, -0.034847286, -0.0010872422, -0.056686427, 0.001956921, 0.06279562, -0.055978805},
{0.059291057, -0.0644823, 0.040491126, 0.049856212, -0.010143294, 0.15182398, 0.00945527, 0.13623248, 0.04142274, 0.015758159},
{0.35794976, 0.20517825, -0.07276118, -0.0031703732, 0.026520126, -0.12317767, -4.40992e-05, -0.23477055, 0.07873313, 0.11020618},
{0.25589624, 0.1416659, 0.024268294, 0.0034216028, 0.012211695, -0.09057484, 0.011811961, -0.17569011, -0.05240699, 0.115361325},
{0.16024007, 0.043034405, -0.029560434, 0.0061952285, 0.0038823762, -0.047669, -0.016427388, -0.16892365, 0.19719188, 0.027561976},
{-0.0020280255, 0.023634808, -0.013157988, 0.01540074, -0.073489666, 0.0384214, -0.042478286, -0.016925389, -0.11157067, -0.03412817},
{0.013557751, -0.014204128, -0.04761027, -0.0040608346, 0.09442803, 0.0041625127, 0.0051554376, 0.031298432, 0.027447611, 0.0039819987},
{0.040347446, -0.034641642, 0.14176239, 0.056106567, 0.02497431, 0.04336063, -0.006131389, 0.035744168, -0.10329946, -0.077137575},
{-0.07054825, -0.13591166, 0.07178303, 0.088167064, -0.07310002, 0.04997791, -0.0551482, -0.051534496, 0.01479486, -0.036188148},
{0.09801995, -0.063057676, 0.09613577, 0.037338104, -0.0201539, 0.10824634, -0.033056296, 0.022375107, 0.0129735675, -0.03719406},
{0.34557205, 0.11320923, -0.06608598, 0.008190989, 0.023044826, -0.10714107, 0.058952153, -0.22593103, 0.1268483, 0.15381925},
{0.13928649, 0.09046953, -0.07126934, -0.028197944, 0.020120552, -0.101287074, -0.07392884, -0.15752257, -0.042113118, 0.12712911},
{0.16397172, -0.01899358, -0.0271153, -0.01090224, 0.0018793691, -0.025464345, -0.0076482543, -0.17636256, 0.11251149, -0.0065259966},
{0.019163033, 0.012016942, 0.005523551, 0.010117241, 0.013023445, -0.014841391, -0.045761496, 0.059233777, -0.06417008, -0.051091082},
{-0.051369835, -0.019180253, -0.039292783, -0.00046600704, 0.063080676, 0.0197884, 0.00019641896, 0.015129498, -0.0026527639, -0.027335588},
{-0.04989373, 0.016156282, 0.02725618, 0.07779851, -0.02546876, 0.044226814, -0.03977278, 0.008137142, 0.04610194, -0.042792052},
{0.02169263, -0.071785636, 0.047817998, 0.06605401, -0.013745428, 0.05829513, -0.03225518, -0.0039232043, -0.021938087, -0.0436258},
{0.15735535, -0.07118886, 0.069336124, 0.023641665, 0.024125215, 0.043439675, -0.02294157, 0.0019922208, -0.03661529, 0.037048135},
{0.1259147, 0.025166642, -0.0035772969, -0.02905747, 0.09059505, -0.064339906, -0.018622184, -0.11930537, 0.13702229, 0.1150294},
{0.10168345, 0.010283088, 0.024075601, -0.02430619, 0.040519517, -0.08210405, -0.023716774, -0.1466878, 0.10955721, 0.07503588},
{0.06155722, 0.036214616, 0.0029460979, -0.03163689, 0.102700554, -0.0106459, -0.070243925, -0.043694414, 0.013487696, -0.05854298},
{-0.076696925, -0.09008301, 0.08600189, 0.028533366, -0.008590859, 0.031754587, 0.08756021, 0.10227187, -0.04862364, -0.1047681},
{-0.046289854, -0.0046026544, -0.07902914, 0.0016853361, 0.087573476, 0.01691571, 0.036198772, 0.06876165, -0.037088748, -0.030197155},
{-0.08246768, -0.06719659, 0.12156094, 0.050719, -0.07772008, 0.011323276, -0.04363454, 0.12996583, -0.10668782, 0.009119641},
{-0.06496229, -0.15555103, 0.12606569, 0.04418022, 0.0049584336, 0.018234633, -0.030624557, -0.03352841, 0.030042853, -0.08644966},
{0.13647084, -0.01939959, 0.08045683, 0.035157416, -0.054397084, 0.038173363, 0.027744932, -0.07814295, 0.10173938, -0.048469666},
{0.06206154, -0.009465528, 0.026730936, -0.01217004, 0.15652066, -0.033651315, -0.011554956, -0.03154293, -0.038415086, -0.03770329},
{0.025495641, 0.017429667, 0.003038141, -0.0054399474, 0.0059483433, -0.029596912, 0.06980457, -0.05703132, 0.010054109, -0.04043848},
{0.00035685624, -0.03355192, -0.00074799894, -0.0029460948, 0.079529285, 0.024065427, -0.037685264, 0.10943721, -0.047014907, -0.06922279},
{0.012204494, -0.0058911396, 0.0878471, 0.036579862, -0.053738635, 0.03367232, -0.08986985, 0.07891555, -0.03204586, -0.114308566},
{-0.06494991, -0.035962258, -0.08374312, 0.0040065083, 0.08425665, 0.024515465, -0.051174313, 0.05651913, -0.034655135, -0.04251727},
{0.01932663, -0.0978584, 0.16762748, 0.11461582, -0.070458084, 0.007722314, -0.10746901, 0.023114428, -0.1254841, -0.06406649},
{-0.020798618, -0.07135475, 0.06073814, 0.07901495, -0.034021627, 0.04780413, 0.022584224, -0.016512372, 0.049358163, -0.034660794},
{0.1522921, -0.08489301, 0.13764693, 0.14442505, 0.022193205, 0.024279486, 0.042602062, -0.12258904, 0.12759523, 0.06802477},
{-0.070517495, -0.029194186, -0.054558504, -0.047058173, 0.07227913, 0.01420908, -0.011211883, 0.058414362, -0.055292856, -0.025291275},
{-0.0985313, 0.05027485, -0.027014472, -0.030128883, 0.05474057, 0.0032914935, -0.009830284, 0.06108665, -0.06395617, -0.005685727},
{-0.04347998, -0.006963193, -0.031239789, -0.003838206, 0.13630426, 0.032515552, -0.009303644, 0.15966411, -0.099522606, -0.032593478},
{-0.069518454, -0.05175935, 0.039766576, 0.07051559, -0.08744934, 0.07214601, -0.07488442, 0.04935097, -0.061876252, -0.04583409},
{-0.07189461, -0.07360552, -0.086086996, -0.005580667, 0.04228979, -0.00094352145, -0.03963161, 0.057039864, -0.050473675, -0.059207805},
{0.022154858, -0.05455076, 0.08963196, 0.046164617, -0.0094250785, -0.04817494, -0.110107236, 0.010998135, 0.012106538, 0.0036554756},
{-0.03447999, -0.044714592, 0.0092211105, 0.005409282, -0.02173782, -0.021714194, -0.009445347, -0.0032378677, 0.02997517, -0.022321539},
{0.2009329, -0.061510716, 0.095625706, 0.116376504, -0.066279925, -0.038744193, 0.04911124, -0.16934201, 0.10876245, 0.07658619},
{-0.12656194, -0.036820594, -0.046355695, -0.04549302, 0.08015217, 0.03616527, -0.026888784, 0.14902228, -0.07467794, -0.03007965},
{-0.10042583, 0.006470856, -0.020735737, -0.03925148, 0.0024216317, -0.0125023285, -0.045284577, 0.09372436, -0.093433544, 0.0051993527},
{0.043574188, 0.012705817, -0.031047173, 0.01647571, 0.13191043, 0.048197445, -0.012300018, 0.08444906, -0.08060699, -0.037978},
{-0.0062509524, 0.030356454, 0.056377724, 0.079494104, 0.027808862, 0.02103349, -0.040985733, 0.03113353, -0.036145214, -0.048185553},
{-0.07091265, -0.066793144, -0.11531361, 0.004065553, 0.14518306, -0.007151023, -0.06524829, 0.06806806, -0.049110174, -0.011671534},
{0.030918209, -0.074971795, 0.09507424, 0.04004993, 0.026807332, 0.04873995, -0.08777348, 0.007377869, -0.042071763, -0.01355396},
{-0.013297053, -0.08934783, 0.11356642, 0.083819106, -0.03755168, 0.0005819632, -0.00883225, -0.064300284, 0.0948726, 0.050890118},
{0.22149828, -0.11911279, 0.058385875, 0.10073547, -0.0104547925, 0.00087473437, 0.034294557, -0.0757059, 0.16772023, 0.15731214},
{-0.103486225, 0.003747384, -0.03856593, -0.008198231, 0.11462893, 0.04479082, -0.018160729, 0.08170662, -0.048827194, -0.062512465},
{-0.07256297, 0.014398609, -0.05563995, -0.114026256, 0.118658155, 0.0032272954, -0.07072184, 0.04499851, -0.09929174, -0.090081275},
{0.0020323782, 0.01616693, -0.09728112, 0.018041607, 0.15020004, 0.032649465, -0.031881254, 0.05104901, -0.047952253, -0.06834858},
{-0.0883574, -0.05039116, 0.1042094, 0.11907268, -0.038417336, 0.06319452, -0.07432984, 0.018830419, -0.092192374, -0.024138246},
{-0.0738118, -0.08358566, -0.0786877, 0.000773921, 0.10102149, -0.023463242, -0.019962156, 0.06207389, -0.03248466, -0.050025616},
{-0.0892145, -0.086838484, 0.078663565, 0.06045827, 0.023800327, -0.012690246, 0.08424368, 0.006379201, -0.017600907, -0.09958991},
{0.063217014, -0.082808435, 0.08357721, 0.059349533, 0.0144400345, 0.025791585, -0.06201089, -0.10799181, 0.10099284, 0.028652934},
{0.16906427, -0.00885399, 0.10346024, 0.06541295, -0.03450723, -0.040742774, 0.089578584, -0.10900924, 0.15656891, 0.14769231},
{-0.008748382, -0.03620303, -0.13795769, -0.041232273, 0.023098815, 0.01952559, -0.059670918, 0.07264852, -0.12703806, -0.05096794},
{-0.15531409, -0.064083554, -0.0078266915, -0.030510258, 0.15722252, -0.006291593, -0.071774855, -0.015670035, -0.084756665, -0.015866552},
{0.06408669, 0.061382204, -0.025648309, 0.002715516, 0.084586345, 0.0092530195, -0.069154784, 0.008057428, -0.11376598, -0.030806994},
{0.04799257, 0.053944822, -0.051182967, 0.04670712, -0.009093033, 0.08797931, -0.017051373, -0.0018476725, -0.04436727, -0.06953697},
{-0.08325699, -0.008107865, -0.19081362, 0.02105969, 0.082079075, -0.033556122, -0.030295627, 0.03572975, -0.0027617053, 0.017821047},
{-0.02963959, -0.12587218, 0.10717375, 0.017822793, 0.005595246, 0.018996416, -0.11468982, 0.018967167, -0.09101192, -0.05464196},
{-0.040840387, -0.084605224, 0.080644235, 0.05307978, 0.033527292, -0.0010541496, -0.053125903, 0.02960155, 0.093736924, 0.04474505},
{0.1844119, 0.05523973, 0.059972428, 0.024804767, -0.046969686, -0.055961538, 0.099694334, -0.09245104, 0.1647803, 0.16072059},
{-0.059552558, -0.03521199, -0.13024221, -0.015509002, 0.12059687, 0.005697707, -0.079558335, 0.03738804, -0.07554963, -0.049876396},
{-0.09160384, 0.0021153348, -0.03370836, -0.062264275, 0.12326872, 0.00231859, -0.11861395, -0.03159377, -0.09088297, -0.06549605},
{0.20436418, 0.081047215, -0.14341256, -0.019615302, 0.18984407, 0.007985979, -0.024042267, -0.08264322, -0.022509312, -0.008807822},
{0.0136148175, -0.06491036, 0.054023694, 0.038213715, -0.098343834, 0.05323203, -0.089701235, 0.0687833, -0.087303154, -0.15921481},
{-0.034483712, -0.05500542, -0.12485138, 0.02406097, 0.11418852, -0.06295186, 0.010840997, 0.034074947, -0.043518584, -0.028999051},
{0.0017005753, -0.019348895, 0.10579671, 0.0767617, 0.019307896, -0.019679584, -0.018857341, 0.07143167, -0.021137344, 0.033705153},
{-0.045533385, -0.13480346, 0.12276112, 0.114336945, -0.014516121, -0.08144848, -0.05778784, -0.09283773, 0.00049363356, 0.011519669},
{0.1766618, 0.0036211438, 0.15692993, -0.009792955, 0.028670585, -0.08686885, 0.16400781, -0.09297701, 0.22170877, 0.2017115},
{-0.030652901, -0.049910985, -0.056265786, -0.009836778, 0.1308472, -0.006701364, -0.0062038177, -0.038582716, -0.03788747, -0.04590599},
{-0.023692476, -0.0018448737, -0.13126868, -0.014976347, 0.13272472, -0.030546455, -0.045983262, 0.027094625, -0.043365832, -0.060595457},
{0.07381396, 0.09209823, -0.13774954, 0.001964684, 0.10020117, -0.03693669, 0.07885052, -0.09563637, 0.0029805566, 0.063338295},
{0.026400456, 0.07340118, 0.01514499, 0.049856152, -0.09675644, 0.0042249933, -0.0392219, 0.011113658, -0.05886322, -0.075278565},
{-0.0025994733, -0.04158225, -0.16966942, 0.011587286, 0.07424439, -0.072327994, -0.04398121, 0.057047296, -0.06695288, -0.027177535},
{0.06333655, -0.0827038, 0.011285417, 0.06829696, 0.056177273, -0.018557629, -0.08044625, 0.0080497395, -0.044601977, -0.022180859},
{-0.0075673084, -0.10571053, 0.049760472, 0.0024681715, -0.055889778, -0.017137825, 0.01632087, -0.046739083, 0.022111258, 0.029510638},
{0.05336533, 0.024613474, 0.09569336, 0.024562562, -0.09750509, -0.08815938, 0.12107324, -0.11114553, 0.12355097, 0.22270183},
{-0.071739495, -0.016054712, -0.111278564, -0.055224665, 0.085108064, -0.03347239, -0.058191866, 0.001662554, -0.08755584, -0.06012552},
{-0.100992315, -0.004140341, -0.08220659, -0.056218047, 0.18741113, -0.019772109, -0.03729222, -0.009978914, -0.07076877, -0.018984998},
{0.15901883, 0.09873724, -0.09995781, -0.007861185, 0.16950776, -0.08105263, -0.010928885, -0.11591596, -0.01390434, 0.075567335},
{-0.042902734, 0.012020724, 0.06748421, 0.06592743, 0.011485659, 0.052706238, -0.016997747, 0.012355086, -0.056802496, -0.09440241},
{-0.0054442077, -0.06180623, -0.17370234, -0.0005913989, 0.04834537, -0.065043524, -0.02858852, 0.029820854, -0.07174515, 0.016573643},
{0.039750297, -0.0903505, 0.06287806, 0.07487279, -0.052243166, -0.00034631687, -0.047230143, 0.030173361, 0.054377697, 0.008149527},
{-0.069304265, -0.25046778, 0.12072028, 0.034909282, -0.024540292, -0.036189616, -0.002960463, -0.09425394, 0.06008708, -0.016217183},
{0.16543873, 0.009437386, 0.12320385, 0.039633833, -0.07931241, -0.06430819, 0.14480828, -0.12117347, 0.21813941, 0.075965926},
{-0.118879676, -0.08231609, -0.035489514, -0.050321985, 0.057113044, -0.040259898, -0.0058268644, 0.0050632413, -0.066598535, -0.06797547},
{-0.049806565, -0.01954827, -0.03673168, -0.0863779, 0.23680371, -0.03875171, -0.039714783, 0.009127639, -0.14641723, -0.04272436},
{0.19623539, 0.0964746, -0.09926002, 0.016113482, 0.064974055, -0.0962698, -0.055819806, -0.06392251, 0.07870924, 0.0589318},
{-0.01775775, 0.013953108, 0.06825765, -0.00061416597, 0.0006121162, -0.0080615925, -0.07390393, 0.034413088, -0.05448351, -0.09665579},
{0.06786259, -0.05095257, -0.17711174, 0.047404155, -0.07228409, -0.03543455, 0.01665447, 0.063666224, -0.03297865, -0.017361648},
{0.014645102, -0.07956612, 0.101485275, 0.014971829, -0.051037826, -0.021523219, -0.010762804, 0.009925221, 0.116854824, -0.026821144},
{-0.029361144, -0.10536869, 0.12751713, 0.010506679, 0.029950527, -0.043913875, 0.030046951, -0.10026797, 0.11198836, -0.038449943},
{0.03933666, -0.05210057, 0.15401201, -0.09400812, 0.052976117, -0.051583603, 0.007192175, -0.11477566, 0.08402301, 0.2016734},
{-0.058695156, -0.07585516, -0.11597628, -0.06878463, 0.08713584, -0.05501126, 0.029803578, 0.048034042, -0.1018208, -0.049972687},
{-0.03100722, -0.066441365, -0.12673852, -0.0656603, 0.19523987, -0.08242218, 0.027290784, 0.042256683, -0.054391734, -0.07650864},
{0.17715283, 0.09105519, -0.16834743, -0.04472974, -0.077917375, -0.05568081, -0.039917737, -0.04251122, 0.094209105, 0.1073539},
{0.040669672, -0.064980134, 0.12102059, 0.08472775, -0.08325482, 0.045960855, -0.052200556, 0.015744839, -0.038235314, -0.0952891},
{-0.009756891, -0.05246771, -0.15380199, 0.03676999, -0.09357545, -0.030513393, -0.039454535, 0.065137655, -0.049802385, -0.004632343},
{0.08207819, -0.005323397, 0.05294692, 0.022616329, 0.022233969, -0.026310533, 0.025643053, 0.010825107, 0.073513225, -0.01186472},
{0.005835957, -0.1326022, 0.035604723, -0.0066009806, -0.027570551, -0.03520177, -0.015811412, -0.114949726, 0.097092256, -0.019247463},
{0.08721263, -0.069168195, 0.1606021, -0.12448447, -0.008801244, -0.12732743, 0.0957367, -0.10315805, 0.059918888, 0.22574598},
{-0.032475214, -0.049542587, -0.11753647, -0.027217237, 0.11219387, -0.013506071, -0.17119424, 0.018299406, -0.054691687, -0.10296566},
{-0.020335699, -0.09152879, -0.07647308, -0.08031854, 0.1502037, -0.05387308, -0.1073669, 0.0021686298, -0.05649209, -0.019349832},
{0.15132174, 0.11790128, -0.16008228, -0.022329899, 0.01989025, -0.08212629, -0.079928346, -0.015852433, 0.05038772, 0.12565647},
{-0.08945114, -0.018936712, 0.0929252, 0.052499935, -0.049756873, -0.02434074, -0.012630127, 0.02450514, -0.1021373, -0.11689602},
{0.018945659, -0.02543567, -0.16123912, 0.0832417, -0.13690202, -0.026971893, 0.012837429, 0.0014263743, 0.021176158, 0.009995495},
{0.038932502, -0.10656454, 0.099771895, 0.026462903, -0.004142555, 0.011018099, -0.012088291, 0.015783612, 0.025378877, 0.0104962},
{0.009172978, -0.12203578, 0.06705778, 0.016476247, 0.094262846, -0.0126049565, 0.017679287, -0.07383987, 0.15259242, 0.0012095163},
{0.0008667414, 0.045843717, 0.1983458, -0.19815981, 0.02126684, -0.14600514, 0.060477402, -0.08827778, 0.1065986, 0.21984366},
{0.0056806095, -0.08635656, -0.0779824, -0.027720705, 0.07173822, -0.035412382, -0.041992057, 0.013879309, -0.102479175, -0.09323895},
{-0.02012374, -0.047500852, -0.11052245, -0.007648893, 0.11817729, -0.075237095, -0.11262369, 0.03690966, -0.09942695, -0.051912688},
{0.087500714, 0.052608266, -0.092056274, -0.011473386, -0.101675786, -0.07781048, -0.012108757, 0.06664404, 0.090097964, 0.039408654},
{-0.06540226, -0.06873665, 0.11962096, 0.05506047, 0.03277036, 0.020709064, -0.086517915, 0.053657264, 0.0063143647, -0.08419947},
{0.091802366, 0.009801571, -0.1492311, 0.08716616, -0.07292113, -0.020996967, -0.019603815, 0.008040503, 0.009159067, -0.005376852},
{-0.06716668, -0.09824447, 0.09333175, 0.041915137, 0.017042112, -0.04216076, -0.05171475, 0.038663063, -0.002077465, -0.009024662},
{-0.0019610492, -0.124096274, 0.063947365, -0.022700265, -0.022997493, -0.058074396, 0.027127694, -0.08043337, 0.013367027, 0.099786215},
{0.013471459, 0.089013614, 0.043125752, -0.14656618, 0.0119289085, -0.14715253, -0.016061842, -0.03368747, 0.15181889, 0.20081435},
{-0.05214772, -0.052094534, -0.136851, 1.7222592e-05, -0.032734383, -0.010690829, -0.07662767, 0.067477845, -0.10778276, 0.014189254},
{-0.059339497, -0.004717662, -0.15471254, 0.022102466, 0.07846507, -0.05252247, 0.040304482, 0.05802457, -0.034670744, -0.06410449},
{0.13933791, 0.07466621, -0.12384444, -0.05174961, -0.076921694, -0.07901471, 0.024618072, 0.022385022, 0.06423346, 0.13923515},
{-0.042444322, -0.09139165, 0.08632318, 0.08836603, -0.00403981, 0.0060888347, 0.0053170123, -0.06574535, -0.031088412, -0.005375921},
{0.084559105, -0.028627865, -0.10373457, 0.08137564, -0.03384212, 0.023837123, 0.002066898, 0.0031684712, -0.00023391919, 0.01613573},
{0.033228334, 0.010492355, 0.020742346, 0.012546341, 0.045438383, -0.0074748336, -0.05997672, -0.11092753, -0.026739044, -0.008391526},
{0.034333263, -0.15505607, 0.044691123, -0.049288154, 0.041198254, -0.016199121, 0.02343279, -0.054005276, 0.063447945, 0.025470098},
{-0.081003696, 0.017431552, 0.14275557, -0.16048183, -0.07487953, -0.0926174, 0.012130835, -0.13270028, 0.07819849, 0.17761253},
{-0.06968709, -0.062465977, -0.090622626, -0.024966858, 0.0076889936, 0.0025619755, -0.025825635, 0.054564647, -0.1535473, -0.08477159},
{-0.025868334, -0.08233834, -0.065409824, 0.045728747, 0.05121548, -0.07535794, -0.08040527, 0.07885746, -0.043539762, -0.09143366},
{0.13994554, 0.011385457, -0.07130635, 0.033621527, -0.16318236, -0.090313755, 0.045981582, 0.03347244, -0.0038035726, 0.07358047},
{-0.046638284, -0.042991314, 0.051730845, 0.041327767, -0.007718357, 0.022661045, -0.02460693, 0.067524776, -0.009975214, -0.013174844},
{0.09421185, -0.015709637, -0.108831525, 0.07331724, 0.010825771, 0.003219674, 0.11028445, 0.014562403, 0.15614818, 0.013931902},
{0.05780525, -0.09118756, 0.0857769, -0.014722056, -0.046497013, 0.03512566, 0.016286302, -0.0075981678, -0.041276354, -0.045483746},
{-0.035884857, -0.1060322, 0.07535556, 0.024449175, -0.024829557, -0.029368386, 0.051476035, -0.028515216, 0.07257224, 0.03874988},
{-0.107799366, 0.0051197503, 0.122345865, -0.14572942, -0.015805343, -0.14056593, 0.083025225, -0.0550299, 0.10635492, 0.15700948},
{0.027716028, -0.09041647, -0.12200491, 0.032527577, -0.07579867, -0.045304112, -0.08660854, -0.0028194534, -0.074184604, -0.051022034},
{-0.020787258, -0.03635109, -0.12760113, 0.050415803, 0.052073337, -0.052119765, -0.022369452, 0.006312367, -0.031002166, 0.01715499},
{0.1347159, 0.043598242, -0.08650243, 0.013551871, -0.076242805, -0.049440052, 0.026833622, 0.06764491, 0.066645764, 0.022496017},
{-0.032245062, 0.031112984, 0.054193802, 0.033978816, 0.01740441, 0.058924768, -0.057031237, -0.022023687, 0.007593439, -0.05259534},
{0.06567492, 0.0063079116, -0.07538814, 0.061781965, 0.019610751, 0.041962244, 0.15120518, -0.027911354, 0.16356815, -0.014522557},
{-0.053868763, -0.075125165, 0.0709669, -0.035282135, -0.030917136, 0.00759735, 0.0054159937, -0.0019514252, 0.051042754, -0.046564717},
{0.05298547, -0.149422, 0.16507354, -0.11205129, -0.03951513, -0.035823464, -0.037874453, -0.073552094, 0.052412342, 0.06358175},
{-0.11106468, 0.114299506, 0.08394167, -0.18834555, -0.029228898, -0.056734324, 0.017803947, -0.054311454, 0.06341951, 0.13747631},
{-0.022434616, -0.045092426, -0.17873122, 0.05929286, -0.07723979, -0.0017426762, -0.029604578, 0.0058751963, -0.028822584, -0.04043495},
{0.016766028, -0.08269575, -0.04537658, 0.10385182, 0.06787287, -0.05277863, -0.04244241, 0.036901202, -0.03575639, -0.12305496},
{0.20164138, 0.020889537, -0.12777735, 0.05774625, -0.17585254, -0.051275466, 0.0012054747, 0.009981186, 0.09811279, -0.0055311653},
{0.08895231, -0.026834242, 0.026927935, 0.09685596, 0.023541143, -0.0035197863, -0.005511324, -0.011486723, -0.11341559, -0.13590512},
{0.116121285, 0.031579364, -0.08831256, 0.04316695, -0.06677004, 0.028153729, 0.19732162, -0.050090645, 0.1652999, 0.0369856},
{0.055492688, -0.07024743, 0.02746765, 0.015361871, 0.0015392944, -0.0033746802, -0.029695015, 0.015562606, -0.03568629, -0.041520853},
{-0.060957514, -0.1097626, 0.11020572, -0.075644344, 0.025833203, -0.033842985, 0.00064030517, -0.0634475, 0.1657316, 0.020115161},
{-0.112709455, 0.15965188, 0.11264658, -0.11627385, 0.02046056, -0.039148998, -0.018650742, 0.005335626, 0.082509, 0.13550827},
{-0.010369579, -0.04368956, -0.12507682, 0.032758355, -0.109406985, -0.031338777, -0.033284243, -0.007296262, -0.09806176, -0.0824107},
{0.02082626, -0.057257462, -0.17773376, 0.08196862, 0.016906772, -0.011444446, -0.039155368, 0.0073255273, -0.052284755, -0.037950784},
{0.09229814, 0.04609698, -0.031142412, 0.0123697035, 0.046832923, -0.009629475, 0.019916654, 0.025852382, 0.13308519, -0.01423708},
{-0.08993693, -0.04318093, 0.14097874, 0.010003047, -0.035528276, -0.008380302, -0.014362889, 0.046627916, -0.0065199854, -0.054086283},
{0.08705068, -0.029312989, 0.06723066, 0.032650895, -0.014092072, 0.008965022, 0.17021617, -0.02668569, 0.18289725, -0.0034989568},
{0.02628933, 0.00048295467, 0.11075676, 0.04324625, -0.042663503, -0.01361181, -0.055504814, 0.011235375, -0.07304883, -0.043847725},
{-0.08414454, -0.039351, 0.0810901, -0.08585991, 0.03063166, -0.06516401, 0.07927515, 0.0005660739, 0.058717415, 0.015401413},
{-0.1672899, 0.08654943, 0.11933024, -0.07189896, 0.07232319, -0.0031087387, 0.06658241, -0.09470663, 0.092083946, 0.009238096},
{0.057548296, -0.049556673, -0.1413088, 0.024201864, -0.021473538, -0.0044660913, 0.0004818535, 0.010618009, 0.01923004, -0.021779345},
{0.022172315, -0.08768257, -0.12194233, 0.09182544, 0.0071792216, -0.0076075145, -0.07934145, 0.05331086, -0.09540138, -0.07191027},
{0.15689807, 0.008600718, -0.03507062, -0.0063873925, -0.021855207, -0.033842925, 0.07090391, 0.047318682, 0.1778742, -0.021587005},
{-0.033392888, -0.017240772, 0.06492872, 0.058789, -0.08494527, 0.001312402, -0.037287448, -0.017431088, 0.0026943327, -0.009127532},
{0.06223902, -0.022357307, 0.03495771, 0.01896959, 0.09340745, -0.020744966, 0.27900824, -0.021594778, 0.22654514, 0.0255291},
{-0.0013338515, -0.019804874, 0.050624818, 0.02793931, -0.0040182737, -0.029513873, -0.06482301, 0.06916846, 0.044068687, -0.087509915},
{-0.093133986, -0.036172856, 0.08545088, -0.0224087, -0.013022223, -0.0353762, 0.010084252, -0.060174454, 0.05371841, -0.024177196},
{-0.1306837, 0.18717551, -0.014242256, -0.06553999, -0.011200698, 0.011277822, 0.06044379, -0.07501779, 0.09091123, 0.04470516},
{0.04108821, -0.070108995, -0.16234367, 0.00129249, 0.0042518047, 0.007764472, -0.027637206, 0.015957126, -0.05925571, -0.04381309},
{0.042317238, -0.034206994, -0.088677615, 0.06783588, -0.028526869, 0.0042047296, -0.11758165, -0.056877647, -0.009813393, 0.03292191},
{0.07779975, 0.009408089, -0.07233037, 0.013316987, 0.12052776, -0.011859157, 0.043742653, 0.007335093, 0.11497187, -0.035018086},
{0.018465795, -0.049760066, 0.07849668, 0.0492057, 0.0010701081, -0.000612329, 0.0018901097, 0.030535145, -0.03447119, -0.06082901},
{0.039831404, 0.008418966, 0.020635001, 0.008581325, 0.066053815, 0.033844106, 0.22724046, -0.035688456, 0.18148696, -0.02933201},
{0.08812475, 0.041957688, 0.049043097, 0.01749886, -0.0025206192, 0.0060601016, -0.057865936, 0.026641859, -0.061573565, 0.010286529},
{-0.08886074, -0.04489908, 0.14157951, -0.0372276, 0.08531423, 0.008543965, -0.0303221, -0.035463136, 0.090915926, -0.009842156},
{-0.15101215, 0.15401973, 0.05897031, -0.023784932, 0.057738706, 0.089635804, 0.021626735, 0.008519342, 0.0033903655, 0.0009633611},
{0.026055051, -0.028295988, -0.093678005, -0.0048807375, -0.037671044, -0.0017730198, -0.01799167, -0.08043993, 0.046951197, -0.01596928},
{0.1087347, -0.0032864471, -0.12163403, 0.04996089, 0.024768036, -0.02208515, -0.031799328, -0.03718419, -0.01172016, -0.030636324},
{0.1503785, -0.087566584, 0.00055994827, -0.0066178995, 0.07265935, 0.01781261, 0.08836719, 0.054149825, 0.108329654, -0.07275551},
{-0.049874127, 0.009292141, 0.06639459, -0.021605873, 0.00816285, 0.031231333, 0.022312121, -0.0046794447, -0.01701355, -0.081087224},
{0.042884476, 0.021220507, 0.05566139, 0.0075576194, 0.067172214, 0.0043138186, 0.1720626, -0.0153866, 0.18891197, 0.012146774},
{-0.020587992, 0.06031212, 0.07364652, 0.036580868, -0.07903408, 0.011547343, -0.067965396, 0.040948078, -0.013805018, 0.017041199},
{-0.045625936, 0.12185195, 0.13887694, 0.0015380776, -0.008169777, -0.004904858, 0.01804533, -0.05073942, 0.0877952, 0.02525127},
{-0.13664944, 0.15668853, 0.1104211, -0.016734844, -0.030595139, 0.05308217, 0.07849114, -0.07420055, 0.035129867, -0.0557462},
{0.07800572, 0.0077984813, -0.11319726, 0.021541644, 0.008424195, -0.0016087514, -0.04110618, -0.020897077, 0.03306133, -0.0057636434},
{0.11960207, -0.005992076, -0.12891532, 0.06758311, 0.015893519, -0.0072816303, 0.0061287843, 0.055423345, 0.07217949, -0.031907428},
{0.13548233, -0.030996384, 0.020107022, 0.02875464, 0.24477741, 0.03747046, -0.010068969, 0.060637508, 0.116247945, -0.055516683},
{0.0355813, -0.008286945, 0.02896418, 0.04000709, 0.0399983, 0.05080836, 0.08336104, 0.058990534, -0.008402809, -0.0034349537},
{0.04130315, -0.020727431, 0.095196605, -0.011722971, 0.15470493, 0.0033904652, 0.2292938, -0.022326212, 0.1705879, -0.041715562},
{-0.036218997, 0.04141804, 0.06801833, 0.020129543, 0.035867263, 0.041395195, -0.0705061, 0.04977165, 0.0019340422, -0.04669829},
{-0.055755913, 0.044356685, 0.025899228, -0.058161628, 0.062212795, -0.03485534, -0.06313476, -0.025921304, 0.14598644, 0.0353305},
{-0.18403357, 0.18022075, -0.025796466, -0.02388614, -0.07940465, 0.108931854, 0.06856331, -0.037239313, 0.11631158, -0.005255927},
{0.090821326, -0.03868789, -0.08417205, 0.015505097, 0.070376545, -0.0020098262, -0.057891857, -0.02739654, -0.004481738, 0.0025158832},
{0.07378401, 0.016293257, -0.15366681, 0.047903553, 0.036096856, -0.01848518, 0.008695119, -0.0040505314, -0.00030865113, -0.062395945},
{0.113123424, -0.070451945, 0.04985636, 0.01518557, 0.26381353, -0.03764934, 0.1155576, 0.013369368, 0.15772729, -0.07013856},
{-0.030494444, -0.0065004304, 0.056310862, 0.08518582, -0.007687623, -0.0073342016, 0.008718947, 0.010200537, -0.028274657, -0.06906402},
{0.038626634, 0.0043314793, 0.06636337, 0.03530845, 0.20125611, 0.0062061218, 0.28641662, -0.046780314, 0.23341493, -0.024218433},
{-0.003596233, 0.13576277, 0.08007105, 0.022157367, -0.0121073155, -0.026865153, -0.038442314, 0.056760866, -0.00040501123, -0.107459374},
{-0.0610275, 0.16773771, 0.038462117, -0.07878106, 0.06296594, -0.042221285, 0.00396629, -0.069709696, 0.025393361, -0.0029222565},
{-0.10208248, 0.15950102, 0.0895139, 0.019257123, 0.010884217, 0.13996857, -0.039303277, -0.028773261, 0.008002398, -0.010564453},
{-0.036054544, -0.04666677, -0.0574168, 0.009806198, 0.07299302, -0.027225802, -0.0073179523, -0.048718497, -0.04932372, 0.028570872},
{0.057340555, -0.013473945, -0.109680265, 0.031824414, 0.04795645, -0.01982131, -0.0026808095, -0.09917108, 0.018970026, -0.020442346},
{0.10530261, -0.019458171, 0.020217594, 0.028459618, 0.25292543, -0.012714547, 0.067170426, -0.026684862, 0.17700535, -0.10545307},
{-0.06147717, 0.049517825, 0.05534252, 0.0087806, 0.0016573005, 0.0071990876, -0.080939874, 0.036866345, -0.027991049, -0.05044872},
{0.02229477, -0.0021098754, 0.12748536, 0.01865975, 0.030346885, 0.02330862, 0.062321514, -0.042542245, 0.2703034, -0.003822276},
{-0.03983554, 0.12534855, 0.053600978, 0.0122034075, 0.031170648, 0.05019065, -0.018743228, 0.037475504, -0.011793488, 0.019009098},
{-0.15111873, 0.12896307, 0.109378725, -0.06689991, 0.0017029158, 0.024534555, 0.027681027, 0.041239936, 0.03750768, 0.015016332},
{-0.10566606, 0.14236374, 0.037957404, -0.039598864, -0.049635276, 0.15117803, 0.046098266, -0.008444002, 0.05346159, -0.10274931},
{0.077848494, -0.018193528, -0.04315381, -0.006680071, 0.07170324, -0.03459393, -0.0074703135, -0.027619747, 0.0071066637, -0.015800726},
{0.09510773, -0.09567568, -0.05859159, 0.038453877, 0.10651193, -0.04138704, 0.03510485, -0.067608446, 0.024798397, -0.060980976},
{0.029675035, -0.06597694, 0.044959303, 0.032862127, 0.13759448, 0.0040508877, 0.09997091, 0.040500425, 0.15493679, -0.086899936},
{-0.11414136, 0.01623457, 0.13646865, 0.027022365, -0.05768882, 0.00079634076, -0.0077457386, 0.055109423, -0.051330406, -0.010773664},
{0.0644148, -0.029780865, 0.07767924, 0.026178429, 0.050227396, 0.061762568, 0.19676852, 0.013087863, 0.22922103, -0.016526932},
{-0.08017635, 0.12726837, 0.12849425, 0.042591173, -0.078166604, -0.006175214, 0.026908321, 0.09600515, -0.031395137, -0.00861543},
{-0.11261596, 0.15979478, 0.05476488, -0.06962841, -0.029170113, 0.014741878, 0.10173502, -0.029459117, 0.0409247, 0.05095571},
{-0.113781385, 0.12005517, 0.036734328, -0.09748882, -0.0228222, 0.13491958, 0.07870487, -0.021235647, 0.036618978, -0.07995562},
{0.06571275, -0.06449961, -0.06576054, -0.015780086, 0.09186262, -0.07282477, -0.0014916278, -0.03207169, 0.0060979906, -0.04633676},
{0.06489825, -0.040966757, -0.04665107, 0.053960778, 0.059138075, -0.045145486, -0.060824756, -0.01736087, -0.03815318, -0.035618536},
{0.15473393, -0.12712407, 0.0052015525, -0.009222181, 0.12618312, 0.02412417, 0.075196214, -0.02163217, 0.18287227, -0.12058661},
{-0.06671589, 0.05673763, 0.08138355, 0.041775554, -0.051992476, 0.014701564, -0.07262907, 0.08863603, 0.022355486, -0.058459595},
{0.016430942, -0.030178184, 0.10323548, -0.012227879, -0.013878835, 0.057452243, 0.163521, -0.021107761, 0.2792203, 0.008231577},
{0.0054013366, 0.12510535, 0.119879134, -0.028953241, 0.1005397, 0.021212453, -0.038343903, 0.029585242, -0.03330782, 0.025050951},
{-0.033133544, 0.13072981, 0.08881965, -0.039134156, -0.023787862, 0.038371533, -0.01021967, 0.0006966626, -0.011921528, 0.022392342},
{-0.118622854, 0.084821604, -0.0550724, -0.1060035, -0.13946114, 0.15821011, -0.023959674, 0.019571438, 0.08350434, -0.04339161},
{0.030012984, -0.07443367, -0.048499808, 0.028710501, 0.11370588, -0.051392972, 0.07389282, -0.07233888, 0.06284101, 0.020505002},
{0.0014063064, 0.0099057015, -0.056233637, 0.039588694, 0.11108686, -0.026055528, 0.07929638, -0.05891808, 0.12152075, 0.002756871},
{0.1763898, -0.11722293, 0.07400681, -0.03256861, 0.024605963, 0.034007765, 0.10496686, -0.014095667, 0.106727935, -0.027466096},
{-0.010250467, 0.043830846, 0.12493227, 0.014464883, 0.011692183, 0.01697236, -0.035820678, 0.007865318, -0.01904491, -0.009640845},
{0.054755338, -0.03516643, 0.092336096, 0.018756736, 0.025555495, 0.058155984, 0.18394598, -0.04980991, 0.25300476, 0.009552673},
{-0.0095892465, 0.13749067, 0.10111928, -0.030454494, 0.020332413, 0.06907488, 0.013076797, 0.060034808, -0.055229984, -0.029630084},
{-0.07644091, 0.17450717, 0.06820668, -0.047024876, 0.02092555, -0.010846024, 0.010494726, -0.007291073, -0.042474277, 0.050110515},
{-0.091068365, 0.11331039, 0.015732896, -0.14021441, 0.021188822, 0.16502286, -0.04468976, 0.10542404, -0.023480907, -0.15727928},
{0.059044965, -0.044390794, -0.04355482, 0.029456077, 0.07264842, -0.047217768, -0.03824899, -0.06438851, 0.008157482, 0.007344616},
{-0.004163035, -0.00036423514, -0.06281905, 0.097444974, 0.11188672, -0.0532067, -0.04302538, -0.05015974, 0.051270407, 0.03595747},
{0.032994088, -0.10291464, 0.03834999, 0.019374305, 0.017049862, 0.055512644, 0.116950355, 0.05087662, 0.11774152, -0.08979779},
{-0.020998584, 0.07483826, 0.10233583, 0.028264228, -0.026566524, 0.020795846, -0.07866806, 0.033446718, -0.02564186, -0.0019177989},
{0.047052417, 0.03866158, 0.15449026, -0.00064558664, -0.09994965, 0.06802337, 0.17210281, -0.03949553, 0.27820915, 0.008398497},
{-0.07862886, 0.20053865, 0.06929045, -0.05862851, 0.06828565, 0.02737919, 0.010143219, 0.07604373, -0.027793577, 0.050333805},
{-0.015654227, 0.20182271, 0.037652176, -0.07415153, -0.030929884, 0.04249058, 0.058772866, 0.014000095, -0.034914088, -0.053732198},
{-0.07541905, 0.105939426, -0.012645051, -0.12955739, -0.015273228, 0.14661111, -0.04676874, 0.034639593, 0.0057144966, -0.17460664},
{0.023826329, -0.040912487, -0.064522184, 0.029754505, 0.018303283, -0.006535978, 0.01395339, -0.013832882, -0.014812006, -0.03256751},
{0.040006224, -0.022394339, -0.049254946, 0.030145993, 0.13210998, 0.0017422396, 0.04978233, 0.038800318, 0.12212401, 0.037876},
{0.1419515, -0.16856757, 0.008956363, -0.028209262, -0.0896118, 0.07583284, 0.041226737, 0.023637155, 0.095450155, -0.05922654},
{-0.04425225, 0.10293449, 0.0463116, 0.008628381, 0.019824948, -0.007510208, -0.058783624, 0.028321747, -0.07347854, -0.023042506},
{0.03333981, -0.017191218, 0.17348424, -0.0050538084, -0.062072597, 0.04945981, 0.13753831, -0.028004892, 0.21904705, 0.006427218},
{-0.04352491, 0.1900348, 0.011296292, -0.04254129, 0.0023173261, 0.11767632, -0.030374581, 0.038246904, -0.0170317, -0.0068429736},
{-0.10120042, 0.19890602, 0.071240395, -0.07800374, -0.024913268, 0.056957588, 0.035563625, 0.029967122, 0.043769326, -0.0023950497},
{-0.035983473, -0.012118696, -0.008744925, -0.10525061, -0.014629872, 0.09739989, -0.052142832, 0.050488032, 0.031077225, -0.19047603},
{0.13404575, -0.0016991341, -0.13071458, 0.03335863, 0.04041091, 0.00053423137, 0.024459347, -0.092890546, 0.034734406, 0.046824146},
{0.16358206, -2.0924126e-05, -0.07748079, 0.049713973, 0.07393197, -0.009950687, 0.041707877, -0.009428609, 0.0053096977, 0.023122892},
{0.108048305, -0.18816076, 0.053557612, 0.0045810845, -0.1298364, 0.051847484, -0.06470971, 0.05963499, 0.16138975, -0.048169617},
{0.06578623, 0.114253506, 0.08753121, 0.028271956, -0.11315442, 0.007692229, -0.12580755, -0.006138389, 0.0070181787, -0.013541543},
{-0.024138004, 0.01680036, 0.16100551, 0.022522634, -0.17771414, 0.005474128, 0.06958332, -0.011700205, 0.20935728, -0.016701132},
{-0.017885864, 0.1641458, 0.13943672, -0.046083152, -0.015696902, 0.026290681, 0.00037869785, 0.06668957, -0.03430316, -0.047668364},
{-0.08965865, 0.23726575, 0.062799186, -0.04376199, -0.04700268, 0.03649648, 0.029826922, -0.050226662, 0.037807625, 0.0041510114},
{-0.08849096, 0.021565923, 0.01801433, -0.091269426, -0.028870009, 0.04407285, -0.0062648635, 0.04441124, 0.010528064, -0.18264626},
{0.11089847, -0.01553431, -0.05519366, -0.020375926, 0.036258265, -0.0014736333, -0.027234321, -0.07801566, 0.04681468, 0.025837183},
{0.05560572, 0.019688042, -0.022603286, 0.07921573, -0.008000044, -0.0022868619, 0.078035735, -0.044897407, -0.023840591, -0.01579111},
{0.13844554, -0.1601561, 0.0024027629, -0.036792476, -0.18224108, 0.051116873, -0.032055937, 0.02851223, 0.098870434, -0.07860502},
{-0.05273529, 0.114083774, 0.0915252, 0.031449076, 0.019156186, 0.008165065, -0.010394535, 0.050073948, -0.029998604, -0.048152138},
{-0.0997727, -0.029799301, 0.29679355, 0.026727768, -0.2586372, 0.015312297, 0.07651369, -0.03408461, 0.14722328, 0.0031234636},
{-0.106930494, 0.16174929, 0.13482669, -0.011303566, -0.003305892, 0.059922356, 0.018342743, 0.026179757, -0.10601049, -0.041387614},
{-0.06512454, 0.20719951, 0.08189511, -0.0997231, 0.05195989, 0.02380569, 0.044735096, 0.03577369, -0.021907452, -0.0454086},
{-0.050717205, -0.035702903, 0.006196553, -0.09117492, 0.0134153, -0.02908203, -0.066379696, 0.009881863, 0.009224146, -0.28619194},
{0.10693914, 0.0019311892, -0.09690916, -0.026554767, -0.010721789, 0.008404761, -0.030483179, -0.105074786, 0.03003008, 0.022706212},
{0.14238213, 0.029128123, -0.045350432, 0.0442223, 0.043046735, 0.013253891, 0.1116598, -0.05228113, 0.030385176, -0.038168713},
{0.104971424, -0.106872454, 0.05202161, -0.046909858, -0.13464692, 0.039509587, 0.07420529, 0.033007458, 0.1298381, -0.09904892},
{-0.06975544, 0.07242485, 0.1251035, -0.054487795, -0.041845266, 0.019243484, -0.060006913, 0.0785552, -0.03246074, -0.085117705},
{-0.16372141, -0.073042214, 0.3125102, 0.05253468, -0.17713682, -0.029441772, -0.0056119054, -0.047424965, 0.18887432, -0.02261598},
{-0.044196926, 0.18068449, 0.041811492, -0.022073999, -0.029300854, 0.03943749, -0.026875783, 0.036055826, -0.03290621, -0.0051252586},
{-0.026249629, 0.27724, 0.09714354, -0.08917187, -0.0059151, 0.10012862, 0.015474263, 0.07354976, -0.015767284, 0.0011714894},
{-0.11143035, -0.0041063903, -0.047549244, -0.10912006, 0.08675362, -0.05841112, 0.05183225, 0.1058614, -0.08085078, -0.3287594},
{0.12762225, 0.03019121, 0.049852103, 0.041527666, -0.054505926, -0.00551464, 0.110300854, -0.090034865, 0.103793666, 0.030987704},
{0.075176276, 0.027589666, -0.005777215, 0.032625414, 0.0019927416, 0.03137568, 0.056034528, -0.03334625, 0.034091573, -0.01606515},
{0.045675233, -0.19541658, 0.093799904, -0.025537523, -0.16450846, 0.021955388, 0.0443121, 0.033075936, 0.07365967, -0.10440818},
{0.0092661185, 0.18494505, 0.05871046, -0.0033720376, -0.03695905, 0.0039872476, -0.014702336, 0.023476882, -0.03438736, -0.06426571},
{-0.27348453, -0.05066309, 0.31309876, 0.052020386, -0.25526053, -0.06850023, -0.071104586, -0.03001263, 0.06924611, -0.05409045},
{-0.059239227, 0.20435911, 0.12175791, -0.052183423, 0.07305401, 0.06520366, -6.7690096e-05, 0.03244152, 0.0035705138, -0.03236328},
{-0.09749744, 0.25465816, 0.03963648, -0.04652887, 0.02800403, 0.088328384, -0.09192634, -0.019542603, -0.07792575, 0.016517652},
{-0.007417785, -0.049256682, 0.07706346, -0.08863072, 0.03954213, -0.057652045, -0.050745994, -0.035558756, -0.0016902842, -0.20548756},
{0.12627926, -0.0018531469, -0.015783198, 0.041924354, -0.0239093, 0.02361478, -0.007373419, -0.058416776, 0.12269626, -0.0070395465},
{0.1393185, 0.01739857, -0.048032816, -0.0039090184, 0.03638109, 0.03303375, 0.058552917, -0.067463666, 0.1363679, 1.2149381e-05},
{0.050337564, -0.20077538, 0.060322147, -0.00085196696, -0.101622865, -0.0073990924, 0.03315819, 0.06736738, 0.0996169, -0.062712684},
{-0.06342616, 0.16279112, 0.117296025, 0.023232102, 0.056186654, 0.025935777, 0.030169921, 0.11620469, 0.044475816, -0.06653242},
{-0.2967598, 0.012516075, 0.27409196, 0.016126437, -0.26506373, -0.094864406, 0.029299906, -0.05786433, 0.091404, 0.015383177},
{-0.054368816, 0.20909832, -0.0032562243, -0.08671913, 0.0024222657, 0.021362012, -0.0048779603, 0.08095257, -0.072423, -0.010653406},
{-0.13839565, 0.21186262, 0.07523618, -0.092072874, 0.024441728, 0.039566517, -0.06227007, 0.03570541, 0.04521335, -0.052700125},
{-0.019711519, -0.04235229, 0.099622, -0.13320076, 0.05833188, -0.064036414, -0.053522374, -0.009950787, -0.0011132094, -0.22959612},
{0.08211873, -0.06597361, 0.043846704, 0.026911875, -0.1419139, 0.013785071, 0.06415454, -0.047352917, 0.08349526, 0.017806415},
{0.09516712, -0.0071293255, 0.05390692, 0.08413279, 0.032405917, 0.010552149, 0.057847057, -0.05753065, 0.13381484, -0.03538084},
{0.06581683, -0.1580399, 0.11467386, -0.012342679, -0.22082794, 0.056660276, 0.027826421, 0.07097715, 0.029633215, -0.09753006},
{-0.01917987, 0.13838351, 0.02558793, 0.04003776, 0.01618856, 0.013663292, -0.060022164, 0.08209468, -0.07379575, 0.0028314926},
{-0.21121825, -0.031587116, 0.26462564, -0.01440234, -0.22097932, -0.07359487, -0.016121699, -0.0023679128, -0.031546395, -0.01991849},
{-0.067342274, 0.18335533, 0.07702588, -0.02596198, 0.028871523, 0.042158842, -0.017576747, 0.06997081, -0.030505478, -0.101007804},
{-0.040193357, 0.1828182, 0.06963729, -0.08522539, 0.044917513, 0.0270186, 0.024342325, 0.060794767, 0.030512068, -0.083901085},
{-0.06916696, 0.04850397, -0.024130337, -0.11160694, 0.073633485, -0.05938081, -0.03892692, -0.0011541448, -0.03761079, -0.12505619},
{0.07386142, -0.053659253, -0.05495099, 0.031003153, -0.060021974, 0.021210324, 0.107889056, -0.048706852, 0.09856584, 0.01703984},
{0.023820365, 0.055331152, -0.05965107, 0.057802785, 0.041152216, 0.07246743, 0.030118717, -0.04737368, 0.1328684, -0.043465648},
{-0.0027538515, -0.15137012, 0.1690981, -0.021842208, -0.21058519, 0.06581338, 0.004284907, 0.047950175, 0.05873047, -0.061981916},
{-0.050943263, 0.18392347, 0.04740592, 0.029838834, -0.006879508, 0.08186054, -0.025389776, -0.026962174, -0.042335615, -0.03202901},
{-0.29377854, -0.04691008, 0.34791118, 0.019805282, -0.17197688, -0.08069337, -0.0014297221, -0.042942163, -0.0062905313, -0.08652037},
{-0.092591986, 0.16592146, 0.061381407, -0.026626183, 0.10965147, -0.010817899, -0.025634076, -3.3690776e-05, -0.03314852, -0.04177777},
{-0.10743539, 0.30241945, 0.08729492, -0.055159125, 0.10729701, 0.045642886, -0.024750538, 0.016664075, -0.0695489, 0.011094789},
{-0.026493663, 0.027803194, -0.035122313, -0.108213894, 0.097330496, -0.021069732, -0.008925471, -0.05505034, 0.09619062, 0.03770714},
{0.0011584176, 0.006240929, 0.03164474, 0.062297165, -0.036290407, 0.047668736, 0.015784068, -0.028111778, 0.03726159, 0.0543886},
{0.08765295, 0.03529616, -0.037624862, 0.09157145, 0.031969808, 0.054107, 0.114951186, -0.03622592, 0.118203014, -0.042147625},
{0.0446394, -0.08561507, 0.09959648, -0.027212419, -0.19326934, 0.05468222, 0.05906312, 0.041104786, 0.035462834, 0.017742584},
{-0.04113775, 0.1585157, 0.097153775, -0.0073952884, 0.009042302, 0.038217243, 0.026623033, 0.04440114, -0.03334226, -0.054799873},
{-0.23881076, -0.049732484, 0.28463006, 0.0038027389, -0.17021321, -0.050446294, -0.027584536, -0.024660556, -0.048751783, -0.14032233},
{-0.06774935, 0.13430491, 0.071788706, -0.06333518, 0.076802224, 0.006105783, -0.055245545, -0.061793007, -0.09998953, -0.0633099},
{-0.03296236, 0.18788442, 0.1614356, -0.040000375, 0.06177742, 0.036297143, 0.041789956, -0.00284369, 0.08336701, -0.14350536},
{0.028757025, 0.004605795, 0.04314829, -0.09645665, 0.10191854, -0.022741076, 0.13614266, -0.004269246, 0.08706116, 0.11928997},
{0.092358716, -0.011556099, -0.0147963185, 0.06489286, -0.035456643, 0.020752098, -0.026942478, -0.082215466, -0.09742215, -0.0014075593},
{0.08563631, -0.042901255, 0.0010302189, 0.09983619, 0.009697603, 0.0015266716, 0.051606003, -0.042536695, 0.09822169, 0.03712934},
{-0.042246792, -0.096382074, 0.14883435, 0.020571774, -0.18212423, 0.101206355, 0.0039777337, 0.0988966, -0.0225185, 0.1178811},
{-0.080950044, 0.09118814, 0.05962897, -0.0036667925, 0.017153863, 0.056754474, 0.0030442907, 0.055352744, -0.019742938, -0.081495054},
{-0.30025205, -0.1232476, 0.38560465, 0.031487256, -0.2716304, -0.051374733, -0.03817661, -0.010034157, 0.012489994, -0.13619766},
{0.0074105016, 0.16724767, 0.16282311, -0.053157344, -0.035783026, -0.0028668041, 0.03473329, 0.04738108, -0.08531631, -0.084716864},
{-0.0005736064, 0.1300274, 0.05315177, -0.05845319, 0.18870744, 0.034347627, 0.06525678, 0.065009184, 0.036370855, -0.08498679},
{-0.022015559, 0.005732, 0.01924997, -0.07606392, 0.09755275, -0.0063075093, 0.06792394, 0.008911862, 0.08871772, 0.12444127},
{0.006016135, 0.044246834, 0.0055115186, 0.074564755, -0.11407949, -0.01061566, -0.04484717, -0.097223036, 0.010292121, 0.0012278077},
{0.113183886, 0.042413004, 0.005022247, 0.10091155, -0.0073345597, 0.07329331, 0.1288588, -0.07735325, 0.18567915, -0.044307284},
{0.015817929, -0.05226961, 0.12843545, 0.024378384, -0.19942369, 0.008615504, 0.0148436595, 0.10434679, -0.047085226, 0.14461528},
{-0.097669914, 0.18066764, 0.02139701, -0.0024092486, -0.068331555, 0.07684813, -0.032644108, 0.039929252, -0.07406891, 0.004360696},
{-0.24304225, -0.08539518, 0.29187655, -0.014927887, -0.14395843, -0.0035862655, -0.060664628, -0.008474151, -0.08636888, -0.13774386},
{-0.047955766, 0.081838645, 0.12901829, -0.08799934, 0.1404511, -0.0338329, 0.006992004, 0.089239, -0.17392139, -0.15194072},
{-0.095590144, 0.14967646, 0.062368393, -0.08792551, 0.06542347, -0.008732045, -0.031059882, 0.0011469835, -0.011715967, -0.06916745},
{0.020958094, -0.029201595, 0.024986934, -0.06636147, 0.060629543, -0.019076834, -0.0048078513, -0.01902109, 0.20538132, 0.079201594},
{-0.03597144, -0.03043384, -0.06744601, 0.05846163, -0.104227535, 0.0053757923, -0.03746176, -0.024339473, -0.022450745, 0.007996404},
{0.05083479, -0.016978042, 0.009390167, 0.12731734, -0.043203384, 0.05554282, 0.028913565, -0.06875941, 0.04876411, -0.083249524},
{0.021136936, 0.053570665, 0.20641829, 0.007460068, -0.20706435, 0.058878534, -0.011309711, 0.01966553, 0.007071594, 0.20077972},
{0.022126384, 0.16717348, 0.037736814, -0.06563759, 0.011254569, 0.016314317, -0.012289714, 0.117852636, -0.029408108, -0.07067365},
{-0.23853838, -0.12581128, 0.23318614, -0.045584824, -0.04103364, -0.02819376, -0.062438503, 0.0055851988, 0.0421214, -0.13332944},
{-0.11217673, 0.09136736, 0.1583502, -0.08314134, 0.022879822, -0.03545222, 0.08203447, 0.0010447052, -0.022597745, -0.10009126},
{0.075041495, 0.033774536, 0.073992595, -0.10684693, 0.10681174, 0.008508752, 0.01700222, 0.030738592, -0.014280747, -0.1755274},
{-0.014937983, -0.05259024, 0.05076316, -0.046794314, 0.08249117, -0.02539009, 0.033323094, -0.038129207, 0.1799533, 0.07162247},
{-0.052604567, 0.0010721321, -0.0059482153, 0.11094931, -0.059593827, 0.01628861, -0.04110998, -0.013264736, -0.07488115, -0.005336835},
{0.00047414927, 0.0022872398, 0.0020678367, 0.13682434, -0.030169854, 0.050746206, 0.0449602, -0.044594545, 0.13182007, -0.1256313},
{-0.04404324, -0.065695256, 0.23820817, 0.009195854, -0.22694266, -0.01603306, -0.009026564, 0.075312175, -0.080395594, 0.20865494},
{-0.08212484, 0.21830356, 0.08425878, -0.107534125, 0.056364283, 0.07031053, 0.036749847, 0.051772654, -0.059921432, -0.04587917},
{-0.20875429, -0.16555233, 0.1408913, -0.015759, -0.024406219, -0.0066266228, -0.053288333, -0.043979824, -0.017613435, -0.09584989},
{-0.101610065, -0.03726416, 0.09896383, -0.05181648, 0.039817616, -0.045956604, -0.00058807485, 0.0045767585, -0.006637542, -0.10653825},
{-0.07784577, 0.04656502, 0.1316644, -0.035811286, 0.15735665, -0.048541997, -0.083609894, -0.039412178, -0.08041376, -0.14263004},
{-0.03681035, -0.03483397, 0.057708234, -0.059532564, 0.11647459, -0.026761316, -0.10392084, -0.062791236, 0.14643876, 0.04496275},
{-0.07387505, 0.0006958489, 0.053655222, 0.103565335, -0.1418632, -0.008973047, -0.052218758, -0.0128630465, 0.027031533, 0.012343557},
{0.120712936, -0.0064097773, -0.06260205, 0.15498024, -0.020140603, 0.06829245, -0.04533724, -0.06426003, 0.11017125, -0.07699212},
{-0.0047685755, 0.0052797957, 0.2104172, 0.0069917, -0.19156963, -0.0009676493, -0.068079896, -0.0031697606, 0.020574527, 0.24514034},
{-0.09128052, 0.11654, 0.0328436, -0.046752777, -0.016907929, -0.0037660871, -0.043679297, 0.07940377, -0.056958575, -0.07429087},
{-0.2732262, -0.16071863, 0.16197293, -0.036446348, -0.04872841, 0.0026257427, -0.06847216, -0.013513847, 0.06686965, -0.052751303},
{-0.04606075, -0.05020464, 0.19304766, -0.060510572, 0.19697396, -0.05103428, -0.08298509, 0.053170037, -0.0003619697, -0.18829179},
{-0.062418576, 0.07512492, 0.15017648, -0.07644254, 0.090447135, -0.0071119503, 0.006289709, -0.018575758, -0.016151685, -0.09941319},
{0.03913159, -0.05163035, 0.07779256, -0.03228048, 0.10119207, -0.024862481, 0.07261986, -0.02713806, 0.08385154, -0.004025963},
{-0.08893202, -0.10471819, 0.09281707, 0.08670688, -0.10115168, 0.046507712, -0.02792292, -0.004468205, -0.0816254, -0.07160988},
{0.15020175, -0.024285901, -0.02942147, 0.11614535, -0.051003985, 0.036727965, 0.04525559, 0.020222835, 0.033303034, -0.08100319},
{0.020432191, -0.0112740155, 0.20290402, 0.020550475, -0.13476944, -0.005709931, -0.03937882, 0.028781842, -0.03697818, 0.05710517},
{-0.090303265, 0.06909607, 0.10146961, -0.05096868, 0.18302277, 0.010547346, 0.033372667, 0.07251811, -0.063714, -0.037478607},
{-0.2166093, -0.08166299, 0.08027949, -0.028197737, 0.09360325, 0.0058538797, 0.04913715, -0.06177974, 0.04763193, -0.06282638},
{0.032326598, -0.019446887, 0.22143108, -0.08024701, 0.08133964, -0.02267306, -0.06766789, 0.008413485, 0.037611812, -0.14697267},
{0.038658943, 0.06390967, 0.119000934, -0.09175328, 0.09863762, -0.027802031, 0.018440505, 0.065477684, 0.0027845968, -0.06395435},
{-0.05005601, -0.030490419, 0.006718691, -0.029627953, 0.058159146, -0.01296066, 0.051505655, -0.07021747, 0.15289593, 0.0038249227},
{-0.08111269, -0.052892406, 0.042928487, 0.062916405, -0.074691474, 0.030072369, -0.03074445, 0.0060631335, -0.08501289, -0.067030184},
{0.11341495, -0.033667535, 0.012516074, 0.1326045, -0.024568576, 0.1084916, 0.06407213, -0.023998506, 0.07990101, -0.12824173},
{0.0012826343, 0.058528952, 0.04258787, 0.04275067, -0.10366618, 0.007825408, 0.0143924495, 0.07841018, -0.06457039, -0.06913048},
{-0.1145894, 0.062276762, 0.14085345, -0.055348676, 0.050231036, -0.049955968, -0.01379191, 0.042123437, -0.007637003, -0.045256194},
{-0.1426911, -0.066347085, 0.07529261, -0.034531448, 0.057159197, 0.0022160234, -0.0892042, -0.061499674, -0.01639637, -0.019052923},
{0.0246504, 0.0032194683, 0.118095726, -0.046838284, 0.07786779, -0.0104082, 0.079455815, -0.011482628, 0.05700504, -0.11403752},
{-0.003283041, 0.02328296, 0.08909328, -0.062160473, 0.103236794, -0.00017132254, 0.009026893, 0.01446804, 0.053341314, 0.039393753},
{-0.04433909, 0.004839263, 0.028038729, -0.042749744, 0.06969506, -0.020314103, 0.06793633, -0.0286656, 0.1481357, -0.025846876},
{-0.06005008, -0.095158815, 0.07541525, 0.06373593, -0.12552893, 0.01205911, 0.013161436, 0.016254162, -0.13717227, -0.08069764},
{-0.0117726885, -0.015839122, -0.050759427, 0.1936179, -0.06284193, 0.0958267, -0.036625188, -0.013595869, 0.06334518, -0.13607797},
{-0.07535784, 0.020663014, 0.1290838, 0.030809326, -0.11581992, -0.018716404, -0.0989625, 0.03527081, -0.06449668, 0.0047347206},
{0.011288074, 0.08771524, 0.041596502, -0.09523944, 0.11129967, -0.010194451, -0.064187855, 0.033411805, 0.02112639, -0.114920124},
{-0.09247015, -0.09714889, 0.05611608, -0.03911983, 0.018497013, -2.1251079e-05, -0.052388422, -0.026571158, -0.03915433, -0.07550959},
{0.012093186, -0.11370078, 0.12684092, -0.022435615, 0.12328127, -0.021482429, -0.009666219, -0.123895414, 0.091158785, -0.09032546},
{0.063937455, 0.028513558, 0.12513356, -0.09610917, 0.11798226, -0.011501358, 0.05673917, -0.061956264, 0.08659618, 0.077089876},
{0.005630287, -0.030913083, 0.0058551026, -0.007946145, 0.009005993, -0.007795715, 0.032433964, -0.07703613, 0.075483404, -0.027766978},
{-0.055976465, -0.058048606, 0.048032712, 0.073791, -0.0020681852, -0.0018950407, -0.018748308, 0.05031651, -0.09523984, -0.0977062},
{0.14705798, -0.08211741, 0.04566812, 0.12616433, -0.12033799, 0.06251761, 0.012104949, 0.01641093, 0.026742697, -0.13775676},
{0.015006575, 0.033671148, 0.09437821, 0.03866807, -0.11741941, 0.02850762, -0.08630067, -0.017276216, -0.07329977, -0.049886744},
{-0.07890315, 0.1620263, 0.06721441, -0.041228905, 0.056708854, -0.047360998, -0.020980299, 0.035887297, -0.10190212, -0.040464252},
{-0.091716394, -0.017128298, 0.012697667, 0.0013747175, 0.039749227, -0.000908494, -0.04192648, -0.024912816, 0.023386918, -0.031254712},
{0.037472337, -0.043998778, 0.15561405, -0.068219006, 0.11916876, -0.025379907, 0.02648228, 0.0003795808, 0.07702887, -0.06512096},
{0.06570638, 0.06417797, 0.085803464, -0.032509506, 0.053932875, -0.030600663, 0.004519422, -0.073776685, 0.013982204, 0.14522563},
{-0.02437905, -0.0018882885, -0.008483348, -0.009741447, 0.14259665, 0.0037539268, -0.021175077, -0.053377315, 0.045948345, 0.0069634574},
{-0.06917579, -0.082073085, 0.13100158, 0.04155999, -0.059901223, -0.006055675, -0.044254582, 0.026510607, -0.09489308, -0.12185384},
{0.049364142, -0.05029645, 0.0146593135, 0.12452259, -0.14700489, 0.0979004, -0.04594105, 0.10700966, 0.07640918, -0.09655758},
{-0.022582686, 0.048699293, 0.018789986, 0.045095693, -0.07876757, 0.0115848705, -0.0243445, 0.006206659, -0.09926235, -0.04555368},
{0.00043623467, 0.062139887, 0.07751041, -0.03289205, 0.19453111, -0.0045195483, 0.02850827, 0.051374607, -0.0054069427, -0.047984652},
{-0.067742795, -0.060766004, 0.051267475, -0.013743065, 0.061900046, 0.031047173, -0.063958496, -0.046103045, -0.013719111, 0.042128757},
{-0.058514, -0.03060583, 0.13431439, -0.029168636, 0.16375315, -0.005950701, 0.027896611, -0.07422819, 0.072121605, 0.008797494},
{0.028012399, -0.04348656, 0.1355597, -0.05603077, 0.18032387, -0.016539162, -0.038392823, -0.010588223, 0.07728857, 0.20253392},
{-0.020056564, -0.0074131726, -0.0023969647, 0.0016870615, 0.004695329, -0.01996013, -0.0066045094, -0.05932409, 0.101375826, 0.0049684513},
{-0.10164074, -0.09060037, 0.07928647, 0.046827093, -0.095234215, 0.034375813, 0.045648914, 0.027366223, -0.058352236, -0.14742711},
{0.105676785, 0.0011319135, 0.03374578, 0.092769526, -0.12348875, 0.11110109, -0.07317081, 0.07783247, 0.014593883, -0.025723975},
{-0.11288885, 0.082863584, 0.14151728, 0.043906868, -0.06960856, -0.008651609, -0.15805317, -0.010086228, -0.07019907, -0.014239628},
{-0.036110893, 0.08367587, 0.049428657, -0.042410698, 0.08711549, 0.0045970352, -0.09559505, -0.07172999, -0.01847695, -0.108283155},
{-0.028629504, -0.03833549, 0.031783752, -0.01188312, -0.030130439, 0.036925294, -0.037460048, 0.00653031, 0.0091558285, 0.03618206},
{-0.014157587, -0.092088126, 0.10951091, -0.029995412, 0.16194314, -0.014795697, 0.055287637, -0.04232582, 0.016407683, 0.054177694},
{0.019293044, 0.02175554, 0.08911884, -0.0571823, 0.07053943, -0.0011624646, 0.02990165, -0.058207203, 0.097340934, 0.05656182},
{-0.004410324, -0.007822945, 0.050070923, -0.0033833832, 0.09977232, 0.0015013377, -0.022442805, -0.04450198, 0.07791217, -0.008906257},
{-0.05124708, -0.13370234, 0.09098696, 0.039493833, -0.05241608, -0.0033526947, -0.009232211, 0.031930745, -0.049995836, -0.07760677},
{0.12551735, -0.06471798, 0.10574198, 0.11236551, -0.05813145, 0.06275645, 0.036746237, 0.032702416, -0.024004394, 0.010187018},
{-0.009521737, 0.007776128, 0.054622654, 0.10073353, -0.08074569, 0.021696681, -0.059600357, 0.018053897, -0.059891924, 0.011948806},
{-0.0009405206, 0.038666584, 0.061948065, -0.003937889, 0.22013092, 0.0032030204, -0.06307301, -0.016884523, 0.042026084, 0.008167926},
{-0.021661645, 0.03611285, -0.009895464, 0.0011183413, 0.028596804, 0.049004223, -0.009483017, -0.020347336, 0.055118334, -0.016605059},
{-0.038062725, -0.05602758, 0.07269401, -0.0276874, 0.18877514, -0.01034235, 0.050658178, -0.037539266, 0.08627247, -0.03802725},
{0.06722741, -0.07507188, 0.104048304, -0.044632684, 0.085463524, -0.0009108168, 0.042740338, -0.01707488, 0.1490062, 0.11432758},
{-0.014561591, -0.03470211, 0.010359023, 0.01721556, 0.08999535, 0.0045700036, 0.022936186, -0.031092005, 0.10440033, 0.043023642},
{-0.09477977, -0.09830807, 0.026818732, 0.0111984955, -0.010847632, 0.013277981, 0.090869896, 0.10856886, -0.050518077, -0.104930185},
{0.07553638, -0.074389465, 0.04322883, 0.0699231, -0.05363606, 0.06729319, 0.035445355, 0.07180914, -0.010778246, 0.033264793},
{-0.037301872, -0.049794424, 0.060970753, 0.06150211, -0.12281691, 0.013276053, -0.1356017, 0.036229957, -0.081369534, -0.0319185},
{0.059926543, -0.0025288248, 0.1329864, -0.0029601501, 0.097104594, 0.0160888, 0.073387474, -0.07228535, -0.050029993, 0.016447062},
{0.024034644, 0.07970327, -0.03022578, -0.019004166, -0.0023189152, 0.062034246, -0.03300452, -0.04218737, -0.023900615, 0.06801129},
{-0.015440278, -0.010588002, 0.0042364467, -0.012833242, 0.10091406, -0.0010006636, 0.07676721, -0.016198618, 0.05426533, 0.014455553},
{-0.084002, -0.086981066, 0.09778283, -0.040281426, 0.08167117, -0.011889278, 0.07047, -0.06199574, 0.06629236, 0.025148312},
{-0.011394141, 0.00048329728, -0.029666608, 0.0097825695, -0.06392157, -0.0012669864, 0.022411508, -0.043448456, 0.092837155, -0.016105782},
{-0.081614845, -0.10907252, 0.032567807, -0.023614902, 0.020624924, -0.013383607, 0.004553955, 0.044272155, -0.09375549, -0.08930028},
{0.11630789, -0.03894089, 0.028452681, 0.030289572, -0.042626545, 0.0784408, 0.07952401, 0.16209759, 0.012247163, 0.037695307},
{0.03785464, -0.06857718, 0.06199821, 0.0584552, -0.07966513, 0.0014957335, -0.12645787, -0.012233503, 0.00083448214, -0.010283301},
{-0.07032407, -0.028417945, 0.13127692, -0.01562893, 0.12989053, 0.021303792, -0.0102611985, -0.025826776, 0.0080640325, -0.012592918},
{-0.02709418, 0.036198996, 0.0902712, 0.009018098, -0.0004306969, 0.0580994, -0.06326935, -0.058231093, 0.052868724, 0.045255426},
{0.00967671, -0.07115357, 0.038219303, -0.017269043, 0.08554912, 0.0070672417, -0.020258851, -0.026331779, 0.00047881485, 0.01845658},
{-0.03509466, -0.06374212, 0.06567573, -0.01993045, 0.120424055, 0.013516971, -0.048354726, 0.023391332, 0.011006311, -0.028872175},
{-0.032380138, -0.025703585, -0.0139766885, 0.010017296, 0.0077935215, 0.0031848785, -0.03560094, -0.012482609, 0.035754513, -0.033870272},
{-0.09695387, -0.08159176, 0.023693774, 0.0032695457, 0.048258107, 0.005377643, -0.0231157, 0.05231703, -0.07124505, -0.0637288},
{0.059239414, -0.10628005, 0.040280208, -0.0022480704, -0.083303, 0.08949998, -0.0008494308, 0.09629096, -0.03534621, 0.0563087},
{-0.05300074, -0.034742963, 0.1527856, 0.06803159, -0.065549016, 0.019147424, -0.057758704, 0.005950877, -0.06912284, 0.024379225},
{0.009585015, -0.02654034, 0.13404049, -0.021877522, 0.1159953, 0.01797013, 0.03748793, -0.08224276, -0.00063618674, 0.0051279874},
{-0.033962082, 0.03157537, -0.027133834, 0.029981831, -0.010577376, 0.04370257, -0.052959595, -0.058740303, -0.0189755, 0.037266646},
{-0.034436572, -0.057855833, 0.023238773, 0.0047455076, 0.10081592, 0.01588728, 0.036314853, -0.018445991, 0.058096655, -0.036484078},
{0.036182974, -0.00027208106, 0.027824337, -0.026524102, 0.1118556, -0.013220156, -0.021341978, -0.023428889, 0.09948538, -0.04278602},
{0.0052042576, -0.023910595, -0.0073132855, 0.04547788, 0.038159154, -0.0011704329, -0.034431852, -0.013799167, 0.06807251, -0.013530322},
{-0.14095013, -0.15926524, 0.021279627, -0.002472285, -0.0014654647, 0.010309319, -0.036218263, 0.02545532, -0.028059656, -0.09668532},
{0.07770681, -0.07499407, 0.1365903, 0.053430773, -0.112710685, 0.05147198, 0.020279724, 0.032057866, 0.07327714, 0.08170657},
{0.022738427, -0.05408034, 0.14842406, 0.04257819, -0.10186878, 0.023693543, -0.0024955745, 0.03992963, 0.05766703, -0.013314227},
{0.0022390732, -0.040907025, 0.04334575, 0.008028703, 0.24469873, 0.013482052, 0.029503621, -0.06607404, 0.045539383, 0.016858565},
{0.012617432, 0.08321778, 0.025993181, 0.042315047, 0.0010351676, 0.0691231, -0.060497854, -0.06644635, 0.007699162, -0.03207329},
{-0.035553057, -0.06101426, -0.010286208, -0.015464792, 0.07337233, -0.007869631, -0.02537426, 0.012608895, 0.04045678, -0.006476473},
{0.010409519, -0.03694532, 0.035719067, -0.01622724, 0.08466253, -0.0032476033, 0.04981896, -0.09146894, 0.043721557, -0.013583447},
{-0.078916624, -0.013509328, 0.0065065017, 0.016304884, 0.035118967, -0.0024019957, 0.03976077, 0.014487367, 0.022743173, -0.0073373835},
{-0.081943154, -0.07233438, -0.010247986, -0.03605883, -0.05379659, 0.020796178, 0.001548195, -0.01561187, -0.012002087, -0.014218733},
{-0.012817014, -0.08859631, 0.0677391, -0.014827422, -0.09432149, 0.032333527, 0.101117425, -0.005722195, 0.03297681, 0.06526963},
{-0.016408687, 0.07140823, 0.093114786, 0.08290558, -0.07332717, 0.024561927, -0.131481, -0.054340493, -0.07376722, -0.06901854},
{0.044519562, 0.048887335, -0.016747717, -0.01309179, 0.14731972, 0.003347257, -0.008200312, -0.026371928, -0.009981646, 0.0533381},
